{"learner":{"attributes":{"scikit_learn":"{\"_estimator_type\": \"classifier\"}"},"feature_names":["age","sex","cp","trestbps","chol","fbs","restecg","thalach","exang","oldpeak","slope","ca","thal"],"feature_types":["int","int","int","int","int","int","int","int","int","float","int","int","int"],"gradient_booster":{"model":{"cats":{"enc":[],"feature_segments":[],"sorted_idx":[]},"gbtree_model_param":{"num_parallel_tree":"1","num_trees":"100"},"iteration_indptr":[0,1,2,3,4,5,6,7,8,9,10,11,12,13,14,15,16,17,18,19,20,21,22,23,24,25,26,27,28,29,30,31,32,33,34,35,36,37,38,39,40,41,42,43,44,45,46,47,48,49,50,51,52,53,54,55,56,57,58,59,60,61,62,63,64,65,66,67,68,69,70,71,72,73,74,75,76,77,78,79,80,81,82,83,84,85,86,87,88,89,90,91,92,93,94,95,96,97,98,99,100],"tree_info":[0,0,0,0,0,0,0,0,0,0,0,0,0,0,0,0,0,0,0,0,0,0,0,0,0,0,0,0,0,0,0,0,0,0,0,0,0,0,0,0,0,0,0,0,0,0,0,0,0,0,0,0,0,0,0,0,0,0,0,0,0,0,0,0,0,0,0,0,0,0,0,0,0,0,0,0,0,0,0,0,0,0,0,0,0,0,0,0,0,0,0,0,0,0,0,0,0,0,0,0],"trees":[{"base_weights":[-1.078506E-7,-1.1768924E0,1.0264969E0,-1.6145992E-1,-1.8345921E0,1.3597405E0,2.775873E-1,6.389926E-1,-1.3877038E0,-1.0043954E0,-2.0243886E-1,1.4544883E0,3.4268863E-2,5.7839894E-1,-1.2130469E-1,1.320159E-1,-5.3075623E-2,-3.203926E-2,-1.6400449E-1,1.25934575E-2,-1.3886131E-1,6.2284138E-2,1.5611465E-1,-1.4347914E-2,1.1677066E-1],"categories":[],"categories_nodes":[],"categories_segments":[],"categories_sizes":[],"default_left":[0,0,0,0,0,0,0,0,0,0,0,0,0,0,0,0,0,0,0,0,0,0,0,0,0],"id":0,"left_children":[1,3,5,7,9,11,13,15,17,19,-1,21,-1,23,-1,-1,-1,-1,-1,-1,-1,-1,-1,-1,-1],"loss_changes":[7.46501E1,1.892944E1,7.859619E0,1.30704E1,7.04422E-1,1.6779175E0,5.8224773E0,7.2303667E0,8.798151E-1,2.4408975E0,0E0,8.3290863E-1,0E0,4.4980984E0,0E0,0E0,0E0,0E0,0E0,0E0,0E0,0E0,0E0,0E0,0E0],"parents":[2147483647,0,0,1,1,2,2,3,3,4,4,5,5,6,6,7,7,8,8,9,9,11,11,13,13],"right_children":[2,4,6,8,10,12,14,16,18,20,-1,22,-1,24,-1,-1,-1,-1,-1,-1,-1,-1,-1,-1,-1],"split_conditions":[1E0,3E0,1E0,1E0,5E-1,1.8E0,2E0,1E0,1E0,1.22E2,-2.0243886E-1,1.12E2,3.4268863E-2,1E0,-1.2130469E-1,1.320159E-1,-5.3075623E-2,-3.203926E-2,-1.6400449E-1,1.25934575E-2,-1.3886131E-1,6.2284138E-2,1.5611465E-1,-1.4347914E-2,1.1677066E-1],"split_indices":[2,12,11,11,9,9,9,8,1,3,0,3,0,6,0,0,0,0,0,0,0,0,0,0,0],"split_type":[0,0,0,0,0,0,0,0,0,0,0,0,0,0,0,0,0,0,0,0,0,0,0,0,0],"sum_hessian":[5.979253E1,2.77874E1,3.200513E1,1.1412683E1,1.6374718E1,2.1584856E1,1.0420275E1,7.194952E0,4.2177305E0,4.2177305E0,1.2156987E1,1.935194E1,2.232916E0,9.179766E0,1.2405089E0,4.465832E0,2.7291195E0,1.2405089E0,2.9772215E0,1.2405089E0,2.9772215E0,2.9772215E0,1.6374718E1,4.465832E0,4.713934E0],"tree_param":{"num_deleted":"0","num_feature":"13","num_nodes":"25","size_leaf_vector":"1"}},{"base_weights":[-2.690251E-3,-1.0710307E0,9.43004E-1,-1.5460274E-1,-1.6585728E0,1.2551117E0,2.4961153E-1,5.895441E-1,-1.2796963E0,-9.2418605E-1,-1.8237527E-1,4.4301397E-1,1.3791668E0,5.3400445E-1,-1.14122964E-1,1.2288137E-1,-4.9042102E-2,-3.0220492E-2,-1.5080668E-1,-7.442988E-3,-1.4222799E-1,1.1502256E-1,-5.832642E-2,1.4524172E-1,4.1581374E-2,-1.3162007E-2,1.0839993E-1],"categories":[],"categories_nodes":[],"categories_segments":[],"categories_sizes":[],"default_left":[0,0,0,0,0,0,0,0,0,0,0,0,0,0,0,0,0,0,0,0,0,0,0,0,0,0,0],"id":1,"left_children":[1,3,5,7,9,11,13,15,17,19,-1,21,23,25,-1,-1,-1,-1,-1,-1,-1,-1,-1,-1,-1,-1,-1],"loss_changes":[6.2110634E1,1.5285645E1,6.7442284E0,1.1118751E1,4.3564606E-1,1.6296234E0,5.107096E0,6.219394E0,7.1477795E-1,2.1112242E0,0E0,3.8792279E0,7.241249E-1,3.8481314E0,0E0,0E0,0E0,0E0,0E0,0E0,0E0,0E0,0E0,0E0,0E0,0E0,0E0],"parents":[2147483647,0,0,1,1,2,2,3,3,4,4,5,5,6,6,7,7,8,8,9,9,11,11,12,12,13,13],"right_children":[2,4,6,8,10,12,14,16,18,20,-1,22,24,26,-1,-1,-1,-1,-1,-1,-1,-1,-1,-1,-1,-1,-1],"split_conditions":[1E0,3E0,1E0,1E0,5E-1,1.42E2,2E0,1E0,1E0,2.34E2,-1.8237527E-1,2.27E2,1.8E0,1E0,-1.14122964E-1,1.2288137E-1,-4.9042102E-2,-3.0220492E-2,-1.5080668E-1,-7.442988E-3,-1.4222799E-1,1.1502256E-1,-5.832642E-2,1.4524172E-1,4.1581374E-2,-1.3162007E-2,1.0839993E-1],"split_indices":[2,12,11,11,9,7,9,8,1,4,0,4,9,6,0,0,0,0,0,0,0,0,0,0,0,0,0],"split_type":[0,0,0,0,0,0,0,0,0,0,0,0,0,0,0,0,0,0,0,0,0,0,0,0,0,0,0],"sum_hessian":[5.9476322E1,2.7865002E1,3.161132E1,1.1379218E1,1.6485783E1,2.1240505E1,1.0370815E1,7.1356444E0,4.243574E0,4.238136E0,1.2247646E1,3.420447E0,1.7820059E1,9.121706E0,1.2491089E0,4.395792E0,2.7398524E0,1.24366E0,2.999914E0,1.9909585E0,2.2471774E0,1.9535058E0,1.4669412E0,1.6089027E1,1.7310305E0,4.4711905E0,4.6505156E0],"tree_param":{"num_deleted":"0","num_feature":"13","num_nodes":"27","size_leaf_vector":"1"}},{"base_weights":[-5.483015E-3,-9.873752E-1,8.717157E-1,-1.4861552E-1,-1.5238923E0,1.1671702E0,2.2499216E-1,5.4647493E-1,-1.189136E0,-8.6068314E-1,-1.6724657E-1,1.3514204E0,5.8601385E-1,4.944055E-1,-1.0779446E-1,1.1504831E-1,-4.536541E-2,-2.8513256E-2,-1.400237E-1,1.3798873E-2,-1.2057296E-1,4.148996E-2,1.5099603E-1,1.2198192E-1,-1.4488237E-2,-1.2075853E-2,1.0108521E-1],"categories":[],"categories_nodes":[],"categories_segments":[],"categories_sizes":[],"default_left":[0,0,0,0,0,0,0,0,0,0,0,0,0,0,0,0,0,0,0,0,0,0,0,0,0,0,0],"id":2,"left_children":[1,3,5,7,9,11,13,15,17,19,-1,21,23,25,-1,-1,-1,-1,-1,-1,-1,-1,-1,-1,-1,-1,-1],"loss_changes":[5.2263344E1,1.2656445E1,5.8616467E0,9.528773E0,2.7029037E-1,1.5382347E0,4.4959183E0,5.381772E0,5.990839E-1,1.970634E0,0E0,1.7131176E0,3.4213526E0,3.3120134E0,0E0,0E0,0E0,0E0,0E0,0E0,0E0,0E0,0E0,0E0,0E0,0E0,0E0],"parents":[2147483647,0,0,1,1,2,2,3,3,4,4,5,5,6,6,7,7,8,8,9,9,11,11,12,12,13,13],"right_children":[2,4,6,8,10,12,14,16,18,20,-1,22,24,26,-1,-1,-1,-1,-1,-1,-1,-1,-1,-1,-1,-1,-1],"split_conditions":[1E0,3E0,1E0,1E0,5E-1,5.7E1,2E0,1E0,1E0,1.22E2,-1.6724657E-1,1.12E2,1E0,1E0,-1.0779446E-1,1.1504831E-1,-4.536541E-2,-2.8513256E-2,-1.400237E-1,1.3798873E-2,-1.2057296E-1,4.148996E-2,1.5099603E-1,1.2198192E-1,-1.4488237E-2,-1.2075853E-2,1.0108521E-1],"split_indices":[2,12,11,11,9,0,9,8,1,3,0,3,1,6,0,0,0,0,0,0,0,0,0,0,0,0,0],"split_type":[0,0,0,0,0,0,0,0,0,0,0,0,0,0,0,0,0,0,0,0,0,0,0,0,0,0,0],"sum_hessian":[5.8679283E1,2.7628136E1,3.1051146E1,1.1276349E1,1.6351786E1,2.0761534E1,1.0289614E1,7.0449643E0,4.2313848E0,4.2359796E0,1.2115807E1,1.4757429E1,6.004103E0,9.040765E0,1.2488489E0,4.2985845E0,2.7463796E0,1.2460563E0,2.9853282E0,1.2418283E0,2.994151E0,2.6602015E0,1.2097228E1,2.8573673E0,3.146736E0,4.475709E0,4.5650554E0],"tree_param":{"num_deleted":"0","num_feature":"13","num_nodes":"27","size_leaf_vector":"1"}},{"base_weights":[-6.180798E-3,-9.1740066E-1,8.1156504E-1,-1.9224395E-1,-1.466664E-1,1.3340782E-1,4.3395168E-1,5.0847054E-1,-1.0365204E0,-8.8882446E-1,7.1988773E-1,1.08216204E-1,-4.2002734E-2,-1.7757257E-2,-1.3207841E-1,-9.15161E-3,-1.3215815E-1,1.1172783E-1,-1.6142484E-2],"categories":[],"categories_nodes":[],"categories_segments":[],"categories_sizes":[],"default_left":[0,0,0,0,0,0,0,0,0,0,0,0,0,0,0,0,0,0,0],"id":3,"left_children":[1,3,5,7,-1,-1,9,11,13,15,17,-1,-1,-1,-1,-1,-1,-1,-1],"loss_changes":[4.436734E1,1.0933504E1,5.613468E0,8.387449E0,0E0,0E0,8.091124E0,4.679465E0,1.3171959E0,1.2416492E0,6.0470886E0,0E0,0E0,0E0,0E0,0E0,0E0,0E0,0E0],"parents":[2147483647,0,0,1,1,2,2,3,3,6,6,7,7,8,8,9,9,10,10],"right_children":[2,4,6,8,-1,-1,10,12,14,16,18,-1,-1,-1,-1,-1,-1,-1,-1],"split_conditions":[1E0,1E0,1E0,3E0,-1.466664E-1,1.3340782E-1,1.43E2,1E0,5E-1,2.35E2,5.7E1,1.08216204E-1,-4.2002734E-2,-1.7757257E-2,-1.3207841E-1,-9.15161E-3,-1.3215815E-1,1.1172783E-1,-1.6142484E-2],"split_indices":[2,11,1,12,0,0,7,8,9,4,0,0,0,0,0,0,0,0,0],"split_type":[0,0,0,0,0,0,0,0,0,0,0,0,0,0,0,0,0,0,0],"sum_hessian":[5.754261E1,2.7158188E1,3.0384422E1,1.2286769E1,1.487142E1,1.1684025E1,1.8700397E1,6.9315844E0,5.355184E0,2.9490855E0,1.5751313E1,4.182094E0,2.7494903E0,1.7355678E0,3.6196163E0,1.4637517E0,1.4853337E0,1.0671644E1,5.079669E0],"tree_param":{"num_deleted":"0","num_feature":"13","num_nodes":"19","size_leaf_vector":"1"}},{"base_weights":[-7.821451E-3,-8.530311E-1,7.5197154E-1,-1.2229617E-1,-1.3252933E0,1.0384218E0,1.4949128E-1,4.745637E-1,-1.0086297E0,-7.28666E-1,-1.4668076E-1,1.2219745E-1,4.986881E-1,-5.3980356E-1,6.0144484E-1,1.0216826E-1,-3.8918525E-2,-2.2328136E-2,-1.25984E-1,1.0186437E-3,-1.1915969E-1,1.1129413E-1,-2.140741E-2,3.601481E-2,-1.1289445E-1,-8.8931073E-4,9.768287E-2],"categories":[],"categories_nodes":[],"categories_segments":[],"categories_sizes":[],"default_left":[0,0,0,0,0,0,0,0,0,0,0,0,0,0,0,0,0,0,0,0,0,0,0,0,0,0,0],"id":4,"left_children":[1,3,5,7,9,11,13,15,17,19,-1,-1,21,23,25,-1,-1,-1,-1,-1,-1,-1,-1,-1,-1,-1,-1],"loss_changes":[3.738488E1,9.346827E0,5.1364555E0,6.783822E0,3.3574677E-1,1.4327736E0,3.7666814E0,4.0848475E0,7.28065E-1,1.7826881E0,0E0,0E0,3.2682264E0,3.00589E0,1.6459768E0,0E0,0E0,0E0,0E0,0E0,0E0,0E0,0E0,0E0,0E0,0E0,0E0],"parents":[2147483647,0,0,1,1,2,2,3,3,4,4,5,5,6,6,7,7,8,8,9,9,12,12,13,13,14,14],"right_children":[2,4,6,8,10,12,14,16,18,20,-1,-1,22,24,26,-1,-1,-1,-1,-1,-1,-1,-1,-1,-1,-1,-1],"split_conditions":[1E0,3E0,1E0,1E0,5E-1,2.59E2,2E0,1E0,4E-1,2.34E2,-1.4668076E-1,1.2219745E-1,1E0,6E-1,1E0,1.0216826E-1,-3.8918525E-2,-2.2328136E-2,-1.25984E-1,1.0186437E-3,-1.1915969E-1,1.1129413E-1,-2.140741E-2,3.601481E-2,-1.1289445E-1,-8.8931073E-4,9.768287E-2],"split_indices":[2,12,11,11,9,4,10,8,9,4,0,0,1,9,6,0,0,0,0,0,0,0,0,0,0,0,0],"split_type":[0,0,0,0,0,0,0,0,0,0,0,0,0,0,0,0,0,0,0,0,0,0,0,0,0,0,0],"sum_hessian":[5.6216324E1,2.655418E1,2.9662144E1,1.0918641E1,1.5635539E1,1.9613361E1,1.0048782E1,6.802436E0,4.1162057E0,4.1764774E0,1.1459062E1,1.369271E1,5.920651E0,3.90251E0,6.1462727E0,4.0525856E0,2.74985E0,1.4553199E0,2.6608856E0,1.98552E0,2.1909575E0,2.8785176E0,3.0421333E0,1.6977595E0,2.2047503E0,2.7124307E0,3.433842E0],"tree_param":{"num_deleted":"0","num_feature":"13","num_nodes":"27","size_leaf_vector":"1"}},{"base_weights":[-9.140171E-3,-8.028577E-1,7.033671E-1,-1.6607296E-1,-1.2891352E0,1.20395444E-1,3.533192E-1,4.440301E-1,-9.052544E-1,-5.7865864E-1,-1.375057E-1,7.8208196E-1,-4.0562662E-1,9.6744776E-2,-3.608292E-2,-1.63015E-2,-1.20049216E-1,-8.4535524E-2,-5.2807257E-3,-5.0754633E-2,9.972518E-2,-6.586025E-2,5.0184797E-2],"categories":[],"categories_nodes":[],"categories_segments":[],"categories_sizes":[],"default_left":[0,0,0,0,0,0,0,0,0,0,0,0,0,0,0,0,0,0,0,0,0,0,0],"id":5,"left_children":[1,3,5,7,9,-1,11,13,15,17,-1,19,21,-1,-1,-1,-1,-1,-1,-1,-1,-1,-1],"loss_changes":[3.207708E1,8.092615E0,4.813307E0,6.157881E0,1.2380791E-1,0E0,6.502853E0,3.5773423E0,1.1410832E0,4.254048E-1,0E0,3.97148E0,2.0570314E0,0E0,0E0,0E0,0E0,0E0,0E0,0E0,0E0,0E0,0E0],"parents":[2147483647,0,0,1,1,2,2,3,3,4,4,6,6,7,7,8,8,9,9,11,11,12,12],"right_children":[2,4,6,8,10,-1,12,14,16,18,-1,20,22,-1,-1,-1,-1,-1,-1,-1,-1,-1,-1],"split_conditions":[1E0,1E0,1E0,3E0,1.12E2,1.20395444E-1,5.7E1,1E0,2.12E2,1E0,-1.375057E-1,1.43E2,1.55E2,9.6744776E-2,-3.608292E-2,-1.63015E-2,-1.20049216E-1,-8.4535524E-2,-5.2807257E-3,-5.0754633E-2,9.972518E-2,-6.586025E-2,5.0184797E-2],"split_indices":[2,11,1,12,3,0,0,8,4,6,0,7,3,0,0,0,0,0,0,0,0,0,0],"split_type":[0,0,0,0,0,0,0,0,0,0,0,0,0,0,0,0,0,0,0,0,0,0,0],"sum_hessian":[5.472189E1,2.5825756E1,2.8896132E1,1.17632265E1,1.406253E1,1.0887303E1,1.800883E1,6.6630206E0,5.1002064E0,2.3516576E0,1.1710872E1,1.1488162E1,6.5206656E0,3.9150012E0,2.7480195E0,1.8930789E0,3.2071276E0,1.1571773E0,1.1944802E0,1.4483864E0,1.0039776E1,5.3136353E0,1.2070304E0],"tree_param":{"num_deleted":"0","num_feature":"13","num_nodes":"23","size_leaf_vector":"1"}},{"base_weights":[-1.0968679E-2,-7.568665E-1,6.574467E-1,-1.39362775E-2,-1.1333611E0,9.3265617E-1,1.0283439E-1,5.126991E-1,-6.768554E-1,-2.8604472E-1,-1.2711732E-1,1.1127338E0,4.2156217E-1,-5.042968E-1,5.142961E-1,-2.7656568E-2,7.643934E-2,-1.8520941E-3,-8.893605E-2,6.0925424E-2,-9.2202224E-2,5.0351974E-2,1.200691E-1,-5.7621945E-2,8.057641E-2,3.0780239E-2,-1.02571465E-1,-5.5711744E-3,8.875915E-2],"categories":[],"categories_nodes":[],"categories_segments":[],"categories_sizes":[],"default_left":[0,0,0,0,0,0,0,0,0,0,0,0,0,0,0,0,0,0,0,0,0,0,0,0,0,0,0,0,0],"id":6,"left_children":[1,3,5,7,9,11,13,15,17,19,-1,21,23,25,27,-1,-1,-1,-1,-1,-1,-1,-1,-1,-1,-1,-1,-1,-1],"loss_changes":[2.7492952E1,7.271883E0,4.3444033E0,3.7597494E0,1.6540813E0,1.3089828E0,2.950315E0,1.4066277E0,6.4926696E-1,2.672809E0,0E0,1.282425E-1,3.0110157E0,2.372064E0,1.5209825E0,0E0,0E0,0E0,0E0,0E0,0E0,0E0,0E0,0E0,0E0,0E0,0E0,0E0,0E0],"parents":[2147483647,0,0,1,1,2,2,3,3,4,4,5,5,6,6,7,7,8,8,9,9,11,11,12,12,13,13,14,14],"right_children":[2,4,6,8,10,12,14,16,18,20,-1,22,24,26,28,-1,-1,-1,-1,-1,-1,-1,-1,-1,-1,-1,-1,-1,-1],"split_conditions":[1E0,5E-1,1E0,1E0,1.17E2,2.59E2,2E0,4.4E1,1.48E2,1E0,-1.2711732E-1,1.12E2,1.42E2,6E-1,1E0,-2.7656568E-2,7.643934E-2,-1.8520941E-3,-8.893605E-2,6.0925424E-2,-9.2202224E-2,5.0351974E-2,1.200691E-1,-5.7621945E-2,8.057641E-2,3.0780239E-2,-1.02571465E-1,-5.5711744E-3,8.875915E-2],"split_indices":[2,9,11,11,3,4,10,0,7,11,0,3,7,9,6,0,0,0,0,0,0,0,0,0,0,0,0,0,0],"split_type":[0,0,0,0,0,0,0,0,0,0,0,0,0,0,0,0,0,0,0,0,0,0,0,0,0,0,0,0,0],"sum_hessian":[5.3145603E1,2.5054483E1,2.8091122E1,8.775317E0,1.6279165E1,1.8319159E1,9.771962E0,5.0166225E0,3.7586954E0,2.7075872E0,1.3571579E1,1.2675826E1,5.6433325E0,3.8562543E0,5.915708E0,1.1890802E0,3.827542E0,1.1825006E0,2.5761948E0,1.1419805E0,1.5656068E0,2.447614E0,1.0228212E1,1.4299458E0,4.2133865E0,1.6680217E0,2.188233E0,2.6777077E0,3.2380004E0],"tree_param":{"num_deleted":"0","num_feature":"13","num_nodes":"29","size_leaf_vector":"1"}},{"base_weights":[-9.908164E-3,-7.084641E-1,6.176097E-1,-7.2516896E-2,-1.1393607E0,1.1088872E0,2.8497332E-1,4.195051E-1,-8.1945556E-1,-6.0505474E-1,-1.278901E-1,1.1703582E0,3.401764E-2,-7.682609E-1,5.356817E-1,1.1345359E-1,-1.4299037E-2,-2.9656356E-3,-1.0739086E-1,5.6827264E-3,-1.0494683E-1,1.242034E-1,3.7656795E-2,-6.8171322E-3,-1.1407459E-1,8.918742E-2,-1.6848955E-2],"categories":[],"categories_nodes":[],"categories_segments":[],"categories_sizes":[],"default_left":[0,0,0,0,0,0,0,0,0,0,0,0,0,0,0,0,0,0,0,0,0,0,0,0,0,0,0],"id":7,"left_children":[1,3,5,7,9,11,13,15,17,19,-1,21,-1,23,25,-1,-1,-1,-1,-1,-1,-1,-1,-1,-1,-1,-1],"loss_changes":[2.3517609E1,6.872508E0,4.3038235E0,4.5037537E0,3.4915543E-1,1.2485123E-1,5.2180347E0,3.1729393E0,9.3958473E-1,1.5353584E0,0E0,9.204483E-2,0E0,9.420192E-1,3.9858189E0,0E0,0E0,0E0,0E0,0E0,0E0,0E0,0E0,0E0,0E0,0E0,0E0],"parents":[2147483647,0,0,1,1,2,2,3,3,4,4,5,5,6,6,7,7,8,8,9,9,11,11,13,13,14,14],"right_children":[2,4,6,8,10,12,14,16,18,20,-1,22,-1,24,26,-1,-1,-1,-1,-1,-1,-1,-1,-1,-1,-1,-1],"split_conditions":[1E0,3E0,1E0,1E0,5E-1,1.74E2,1.43E2,1E0,1E0,2.34E2,-1.278901E-1,3.19E2,3.401764E-2,2.35E2,5.7E1,1.1345359E-1,-1.4299037E-2,-2.9656356E-3,-1.0739086E-1,5.6827264E-3,-1.0494683E-1,1.242034E-1,3.7656795E-2,-6.8171322E-3,-1.1407459E-1,8.918742E-2,-1.6848955E-2],"split_indices":[2,12,1,11,9,7,7,6,1,4,0,4,0,4,0,0,0,0,0,0,0,0,0,0,0,0,0],"split_type":[0,0,0,0,0,0,0,0,0,0,0,0,0,0,0,0,0,0,0,0,0,0,0,0,0,0,0],"sum_hessian":[5.1651352E1,2.4381145E1,2.7270205E1,1.0319379E1,1.4061768E1,1.0067571E1,1.7202635E1,6.4855785E0,3.8338003E0,4.016907E0,1.004486E1,8.838309E0,1.2292622E0,2.9106288E0,1.4292006E1,2.4078314E0,4.077747E0,1.2062519E0,2.6275485E0,1.9639909E0,2.0529165E0,7.5884204E0,1.2498883E0,1.4216464E0,1.4889824E0,9.314084E0,4.977921E0],"tree_param":{"num_deleted":"0","num_feature":"13","num_nodes":"27","size_leaf_vector":"1"}},{"base_weights":[-1.0948199E-2,-6.69687E-1,5.790911E-1,-6.737476E-2,-1.0882435E0,1.0613455E0,2.597415E-1,-1.0005132E-1,3.0203992E-1,-5.724291E-1,-1.2280631E-1,1.1219225E0,3.2403827E-2,-7.249798E-1,4.9911442E-1,6.461097E-2,-4.7662895E-2,2.0543918E-2,-8.85809E-2,1.1931475E-1,3.5859864E-2,-6.415613E-3,-1.0787236E-1,8.418832E-2,-1.5414998E-2],"categories":[],"categories_nodes":[],"categories_segments":[],"categories_sizes":[],"default_left":[0,0,0,0,0,0,0,0,0,0,0,0,0,0,0,0,0,0,0,0,0,0,0,0,0],"id":8,"left_children":[1,3,5,7,9,11,13,-1,15,17,-1,19,-1,21,23,-1,-1,-1,-1,-1,-1,-1,-1,-1,-1],"loss_changes":[2.022708E1,6.123576E0,3.9536095E0,4.1437654E0,3.3821487E-1,1.106205E-1,4.568239E0,0E0,2.6526854E0,1.3890852E0,0E0,8.342266E-2,0E0,8.418555E-1,3.4768686E0,0E0,0E0,0E0,0E0,0E0,0E0,0E0,0E0,0E0,0E0],"parents":[2147483647,0,0,1,1,2,2,3,3,4,4,5,5,6,6,8,8,9,9,11,11,13,13,14,14],"right_children":[2,4,6,8,10,12,14,-1,16,18,-1,20,-1,22,24,-1,-1,-1,-1,-1,-1,-1,-1,-1,-1],"split_conditions":[1E0,3E0,1E0,1.26E2,5E-1,1.74E2,1.43E2,-1.0005132E-1,1E0,1.22E2,-1.2280631E-1,3.19E2,3.2403827E-2,2.35E2,5.7E1,6.461097E-2,-4.7662895E-2,2.0543918E-2,-8.85809E-2,1.1931475E-1,3.5859864E-2,-6.415613E-3,-1.0787236E-1,8.418832E-2,-1.5414998E-2],"split_indices":[2,12,1,7,9,7,7,0,11,3,0,4,0,4,0,0,0,0,0,0,0,0,0,0,0],"split_type":[0,0,0,0,0,0,0,0,0,0,0,0,0,0,0,0,0,0,0,0,0,0,0,0,0],"sum_hessian":[5.0042454E1,2.3580944E1,2.646151E1,1.0144193E1,1.3436752E1,9.616315E0,1.6845196E1,2.392467E0,7.7517257E0,3.9518557E0,9.484897E0,8.404181E0,1.2121347E0,2.8973887E0,1.3947806E1,5.494232E0,2.2574935E0,1.2337911E0,2.7180643E0,7.1718836E0,1.232297E0,1.4221163E0,1.4752723E0,8.958524E0,4.9892826E0],"tree_param":{"num_deleted":"0","num_feature":"13","num_nodes":"25","size_leaf_vector":"1"}},{"base_weights":[-1.2820905E-2,-6.362024E-1,5.43754E-1,-6.918706E-2,-1.0408511E0,8.203261E-1,2.2777606E-2,4.477829E-1,-6.9018257E-1,-5.372698E-1,-1.1836427E-1,4.445606E-1,1.0772207E0,-4.1596615E-1,5.1311946E-1,8.73628E-2,-3.5877507E-2,9.129587E-3,-9.9882096E-2,7.5372714E-3,-9.700933E-2,9.797591E-2,-2.5508315E-3,2.620462E-2,1.15729295E-1,4.9432316E-3,-1.11312486E-1,9.692704E-2,-1.7222038E-2],"categories":[],"categories_nodes":[],"categories_segments":[],"categories_sizes":[],"default_left":[0,0,0,0,0,0,0,0,0,0,0,0,0,0,0,0,0,0,0,0,0,0,0,0,0,0,0,0,0],"id":9,"left_children":[1,3,5,7,9,11,13,15,17,19,-1,21,23,25,27,-1,-1,-1,-1,-1,-1,-1,-1,-1,-1,-1,-1,-1,-1],"loss_changes":[1.7496523E1,5.3834515E0,3.8218436E0,3.83183E0,3.5666752E-1,1.1990814E0,2.42322E0,2.5784855E0,1.3884578E0,1.367305E0,0E0,2.22907E0,3.2476425E-1,1.9931077E0,1.8232747E0,0E0,0E0,0E0,0E0,0E0,0E0,0E0,0E0,0E0,0E0,0E0,0E0,0E0,0E0],"parents":[2147483647,0,0,1,1,2,2,3,3,4,4,5,5,6,6,7,7,8,8,9,9,11,11,12,12,13,13,14,14],"right_children":[2,4,6,8,10,12,14,16,18,20,-1,22,24,26,28,-1,-1,-1,-1,-1,-1,-1,-1,-1,-1,-1,-1,-1,-1],"split_conditions":[1E0,3E0,1E0,1E0,5E-1,1.61E2,1E0,1E0,5.2E1,2.34E2,-1.1836427E-1,1E0,1.14E2,3E0,5E-1,8.73628E-2,-3.5877507E-2,9.129587E-3,-9.9882096E-2,7.5372714E-3,-9.700933E-2,9.797591E-2,-2.5508315E-3,2.620462E-2,1.15729295E-1,4.9432316E-3,-1.11312486E-1,9.692704E-2,-1.7222038E-2],"split_indices":[2,12,11,8,9,7,6,11,0,4,0,1,3,12,9,0,0,0,0,0,0,0,0,0,0,0,0,0,0],"split_type":[0,0,0,0,0,0,0,0,0,0,0,0,0,0,0,0,0,0,0,0,0,0,0,0,0,0,0,0,0],"sum_hessian":[4.8431232E1,2.2777096E1,2.5654137E1,9.973157E0,1.2803939E1,1.6382513E1,9.271623E0,5.5946317E0,4.378525E0,3.8806632E0,8.923275E0,7.7609367E0,8.621577E0,4.9733205E0,4.298302E0,3.607038E0,1.9875939E0,1.4390417E0,2.939483E0,1.9485025E0,1.9321606E0,3.1220398E0,4.6388974E0,1.1532772E0,7.4683E0,3.5395422E0,1.4337784E0,2.331922E0,1.9663802E0],"tree_param":{"num_deleted":"0","num_feature":"13","num_nodes":"29","size_leaf_vector":"1"}},{"base_weights":[-1.258048E-2,-6.0621715E-1,5.133431E-1,1.579507E-2,-9.5129967E-1,9.879807E-1,2.1220249E-1,4.853746E-1,-5.098703E-1,-1.6286404E-1,-1.0941135E0,4.7084913E-1,1.1227576E-1,1.0164801E-1,-5.8154568E-2,8.208614E-2,-2.6523069E-2,7.037323E-3,-9.297172E-2,6.0064644E-2,-7.760744E-2,-3.8035434E-2,-1.1592262E-1,8.147528E-2,-2.0863343E-2,-8.059117E-2,1.9289114E-2],"categories":[],"categories_nodes":[],"categories_segments":[],"categories_sizes":[],"default_left":[0,0,0,0,0,0,0,0,0,0,0,0,0,0,0,0,0,0,0,0,0,0,0,0,0,0,0],"id":10,"left_children":[1,3,5,7,9,11,13,15,17,19,21,23,-1,-1,25,-1,-1,-1,-1,-1,-1,-1,-1,-1,-1,-1,-1],"loss_changes":[1.5240175E1,4.9349623E0,3.4917703E0,2.509166E0,1.4836311E0,1.5291119E-1,3.7811606E0,1.5653801E0,1.2373967E0,2.0759056E0,1.3167381E-1,1.0448601E0,0E0,0E0,2.7379146E0,0E0,0E0,0E0,0E0,0E0,0E0,0E0,0E0,0E0,0E0,0E0,0E0],"parents":[2147483647,0,0,1,1,2,2,3,3,4,4,5,5,6,6,7,7,8,8,9,9,10,10,11,11,14,14],"right_children":[2,4,6,8,10,12,14,16,18,20,22,24,-1,-1,26,-1,-1,-1,-1,-1,-1,-1,-1,-1,-1,-1,-1],"split_conditions":[1E0,5E-1,1E0,3E0,1.17E2,2E0,4.5E1,1E0,2.34E2,1E0,1.98E2,5.7E1,1.1227576E-1,1.0164801E-1,1.43E2,8.208614E-2,-2.6523069E-2,7.037323E-3,-9.297172E-2,6.0064644E-2,-7.760744E-2,-3.8035434E-2,-1.1592262E-1,8.147528E-2,-2.0863343E-2,-8.059117E-2,1.9289114E-2],"split_indices":[2,9,1,12,3,2,0,8,4,11,4,0,0,0,7,0,0,0,0,0,0,0,0,0,0,0,0],"split_type":[0,0,0,0,0,0,0,0,0,0,0,0,0,0,0,0,0,0,0,0,0,0,0,0,0,0,0],"sum_hessian":[4.681748E1,2.1921215E1,2.4896263E1,8.162504E0,1.3758711E1,8.778843E0,1.611742E1,4.3517294E0,3.810775E0,2.4382424E0,1.1320469E1,2.7439604E0,6.0348825E0,3.3605237E0,1.2756896E1,2.9428217E0,1.4089078E0,1.9492395E0,1.8615354E0,1.0951525E0,1.3430899E0,1.5183157E0,9.802154E0,1.6896877E0,1.0542727E0,2.6508713E0,1.0106025E1],"tree_param":{"num_deleted":"0","num_feature":"13","num_nodes":"27","size_leaf_vector":"1"}},{"base_weights":[-1.1412375E-2,-5.737712E-1,4.845554E-1,-6.900547E-2,-9.994278E-1,7.550836E-1,-6.6504965E-4,-4.3135688E-1,7.0871764E-1,-3.8952535E-1,-1.101562E-1,9.380172E-1,2.7074885E-1,-4.0782687E-1,4.706287E-1,1.9759495E-2,-7.77618E-2,9.1111496E-2,8.107866E-3,1.889776E-2,-7.399194E-2,3.8110178E-2,1.03237644E-1,8.473306E-2,-2.7335295E-2,3.2136545E-3,-1.0596161E-1,9.157371E-2,-1.7012997E-2],"categories":[],"categories_nodes":[],"categories_segments":[],"categories_sizes":[],"default_left":[0,0,0,0,0,0,0,0,0,0,0,0,0,0,0,0,0,0,0,0,0,0,0,0,0,0,0,0,0],"id":11,"left_children":[1,3,5,7,9,11,13,15,17,19,-1,21,23,25,27,-1,-1,-1,-1,-1,-1,-1,-1,-1,-1,-1,-1,-1,-1],"loss_changes":[1.3219851E1,4.7015014E0,3.3081574E0,3.4709227E0,3.1662464E-1,1.1795168E0,2.114521E0,1.957668E0,4.2767298E-1,8.0149585E-1,0E0,2.023611E-1,2.0641475E0,1.7291107E0,1.6126498E0,0E0,0E0,0E0,0E0,0E0,0E0,0E0,0E0,0E0,0E0,0E0,0E0,0E0,0E0],"parents":[2147483647,0,0,1,1,2,2,3,3,4,4,5,5,6,6,7,7,8,8,9,9,11,11,12,12,13,13,14,14],"right_children":[2,4,6,8,10,12,14,16,18,20,-1,22,24,26,28,-1,-1,-1,-1,-1,-1,-1,-1,-1,-1,-1,-1,-1,-1],"split_conditions":[1E0,1E0,1E0,1.59E2,1E0,2.59E2,1E0,1E0,3E0,1.4E2,-1.101562E-1,1.12E2,1E0,3E0,5E-1,1.9759495E-2,-7.77618E-2,9.1111496E-2,8.107866E-3,1.889776E-2,-7.399194E-2,3.8110178E-2,1.03237644E-1,8.473306E-2,-2.7335295E-2,3.2136545E-3,-1.0596161E-1,9.157371E-2,-1.7012997E-2],"split_indices":[2,11,11,7,1,4,6,8,12,3,0,3,1,12,9,0,0,0,0,0,0,0,0,0,0,0,0,0,0],"split_type":[0,0,0,0,0,0,0,0,0,0,0,0,0,0,0,0,0,0,0,0,0,0,0,0,0,0,0,0,0],"sum_hessian":[4.540114E1,2.1203001E1,2.419814E1,1.0231762E1,1.0971238E1,1.5179078E1,9.019061E0,7.2835975E0,2.9481645E0,2.2642071E0,8.707031E0,1.0337779E1,4.8412986E0,4.910999E0,4.1080627E0,2.7385738E0,4.5450234E0,1.8877573E0,1.0604072E0,1.0278653E0,1.2363417E0,2.227825E0,8.109955E0,2.0799186E0,2.76138E0,3.4995005E0,1.4114983E0,2.1708906E0,1.9371719E0],"tree_param":{"num_deleted":"0","num_feature":"13","num_nodes":"29","size_leaf_vector":"1"}},{"base_weights":[-9.472846E-3,4.0300143E-1,-6.1402875E-1,8.132428E-1,-3.831316E-2,-8.9765936E-1,1.5915413E-1,-3.4952797E-2,9.4803023E-1,-4.153084E-1,3.790439E-1,-3.4764314E-1,-1.1590562E-1,5.867372E-1,-3.6326495E-1,3.2742888E-2,1.0571623E-1,2.6573231E-2,-8.1712335E-2,8.88751E-2,-2.8696835E-2,2.9752403E-2,-9.159046E-2,3.1011149E-3,8.059601E-2,-4.5912534E-2,-1.0227396E-2],"categories":[],"categories_nodes":[],"categories_segments":[],"categories_sizes":[],"default_left":[0,0,0,0,0,0,0,0,0,0,0,0,0,0,0,0,0,0,0,0,0,0,0,0,0,0,0],"id":12,"left_children":[1,3,5,7,9,11,13,-1,15,17,19,21,-1,23,25,-1,-1,-1,-1,-1,-1,-1,-1,-1,-1,-1,-1],"loss_changes":[1.1457717E1,4.9785404E0,4.228114E0,2.557972E0,2.3790524E0,1.5782022E0,1.5196834E0,0E0,5.343485E-1,2.3778386E0,2.707385E0,2.4236932E0,0E0,4.1344607E-1,3.435889E-2,0E0,0E0,0E0,0E0,0E0,0E0,0E0,0E0,0E0,0E0,0E0,0E0],"parents":[2147483647,0,0,1,1,2,2,3,3,4,4,5,5,6,6,8,8,9,9,10,10,11,11,13,13,14,14],"right_children":[2,4,6,8,10,12,14,-1,16,18,20,22,-1,24,26,-1,-1,-1,-1,-1,-1,-1,-1,-1,-1,-1,-1],"split_conditions":[3E0,5.5E1,2E0,1.27E2,2E0,5E-1,1E0,-3.4952797E-2,1.14E2,2.35E2,1E0,2.34E2,-1.1590562E-1,1.48E2,5.8E1,3.2742888E-2,1.0571623E-1,2.6573231E-2,-8.1712335E-2,8.88751E-2,-2.8696835E-2,2.9752403E-2,-9.159046E-2,3.1011149E-3,8.059601E-2,-4.5912534E-2,-1.0227396E-2],"split_indices":[12,0,2,7,10,9,11,0,3,4,1,4,0,7,0,0,0,0,0,0,0,0,0,0,0,0,0],"split_type":[0,0,0,0,0,0,0,0,0,0,0,0,0,0,0,0,0,0,0,0,0,0,0,0,0,0,0],"sum_hessian":[4.395546E1,2.6326736E1,1.7628721E1,1.3206936E1,1.3119801E1,1.277969E1,4.849032E0,1.2064111E0,1.2000525E1,6.8957944E0,6.224006E0,4.86757E0,7.9121203E0,2.5988455E0,2.2501864E0,2.3929331E0,9.607592E0,2.6844907E0,4.2113037E0,3.3362772E0,2.887729E0,2.5026522E0,2.3649178E0,1.058083E0,1.5407623E0,1.0904933E0,1.1596932E0],"tree_param":{"num_deleted":"0","num_feature":"13","num_nodes":"27","size_leaf_vector":"1"}},{"base_weights":[-9.710355E-3,-5.2071077E-1,4.344251E-1,-5.2478313E-2,-9.331454E-1,9.001858E-1,1.5739363E-1,-3.7983343E-1,6.560589E-1,-3.0302202E-2,-1.03343144E-1,3.878647E-1,1.04555786E-1,9.3157165E-2,-8.183696E-2,2.007711E-2,-7.126232E-2,8.431546E-2,8.444375E-3,7.443916E-2,-2.4374403E-2,2.8063977E-2,-5.444783E-2],"categories":[],"categories_nodes":[],"categories_segments":[],"categories_sizes":[],"default_left":[0,0,0,0,0,0,0,0,0,0,0,0,0,0,0,0,0,0,0,0,0,0,0],"id":13,"left_children":[1,3,5,7,9,11,13,15,17,-1,-1,19,-1,-1,21,-1,-1,-1,-1,-1,-1,-1,-1],"loss_changes":[1.0121411E1,3.9540715E0,2.9384484E0,2.7465966E0,3.795328E-1,2.4175787E-1,3.0729265E0,1.6884469E0,3.319124E-1,0E0,0E0,9.7201556E-1,0E0,0E0,2.379793E0,0E0,0E0,0E0,0E0,0E0,0E0,0E0,0E0],"parents":[2147483647,0,0,1,1,2,2,3,3,4,4,5,5,6,6,7,7,8,8,11,11,14,14],"right_children":[2,4,6,8,10,12,14,16,18,-1,-1,20,-1,-1,22,-1,-1,-1,-1,-1,-1,-1,-1],"split_conditions":[1E0,1E0,1E0,1.59E2,1.12E2,2E0,4.5E1,1E0,3E0,-3.0302202E-2,-1.03343144E-1,5.7E1,1.04555786E-1,9.3157165E-2,7E-1,2.007711E-2,-7.126232E-2,8.431546E-2,8.444375E-3,7.443916E-2,-2.4374403E-2,2.8063977E-2,-5.444783E-2],"split_indices":[2,11,1,7,3,2,0,8,12,0,0,0,0,0,9,0,0,0,0,0,0,0,0],"split_type":[0,0,0,0,0,0,0,0,0,0,0,0,0,0,0,0,0,0,0,0,0,0,0],"sum_hessian":[4.2600147E1,1.9728773E1,2.2871372E1,9.7673025E0,9.961472E0,7.691162E0,1.5180211E1,6.9980254E0,2.7692769E0,1.9198887E0,8.041582E0,2.5107706E0,5.1803913E0,2.9003403E0,1.227987E1,2.6942253E0,4.3038E0,1.7284864E0,1.0407906E0,1.4907285E0,1.0200422E0,7.1058645E0,5.1740055E0],"tree_param":{"num_deleted":"0","num_feature":"13","num_nodes":"23","size_leaf_vector":"1"}},{"base_weights":[-5.857478E-3,3.6737192E-1,-5.591524E-1,7.36532E-1,-5.5069715E-2,-8.390001E-1,1.5808056E-1,-4.2401996E-2,8.995802E-1,3.423454E-1,-4.3201208E-1,-3.1155944E-1,-1.1084272E-1,5.643847E-1,-3.2970104E-1,2.8864173E-2,1.0077884E-1,-1.4515621E-2,9.523679E-2,9.314225E-3,-9.275416E-2,2.8492857E-2,-8.59627E-2,8.026829E-2,6.0802805E-3,-4.4143505E-2,-6.795257E-3],"categories":[],"categories_nodes":[],"categories_segments":[],"categories_sizes":[],"default_left":[0,0,0,0,0,0,0,0,0,0,0,0,0,0,0,0,0,0,0,0,0,0,0,0,0,0,0],"id":14,"left_children":[1,3,5,7,9,11,13,-1,15,17,19,21,-1,23,25,-1,-1,-1,-1,-1,-1,-1,-1,-1,-1,-1,-1],"loss_changes":[8.944852E0,4.0759077E0,3.6339922E0,3.0076084E0,2.0949802E0,1.4603882E0,1.323183E0,0E0,5.3475475E-1,2.185724E0,1.9373404E0,2.104188E0,0E0,3.7107718E-1,6.471932E-2,0E0,0E0,0E0,0E0,0E0,0E0,0E0,0E0,0E0,0E0,0E0,0E0],"parents":[2147483647,0,0,1,1,2,2,3,3,4,4,5,5,6,6,8,8,9,9,10,10,11,11,13,13,14,14],"right_children":[2,4,6,8,10,12,14,-1,16,18,20,22,-1,24,26,-1,-1,-1,-1,-1,-1,-1,-1,-1,-1,-1,-1],"split_conditions":[3E0,5.6E1,2E0,1.27E2,1E0,5E-1,1E0,-4.2401996E-2,1.14E2,6.4E1,1E0,2.34E2,-1.1084272E-1,1E0,5.8E1,2.8864173E-2,1.0077884E-1,-1.4515621E-2,9.523679E-2,9.314225E-3,-9.275416E-2,2.8492857E-2,-8.59627E-2,8.026829E-2,6.0802805E-3,-4.4143505E-2,-6.795257E-3],"split_indices":[12,0,2,7,1,9,11,0,3,0,11,4,0,6,0,0,0,0,0,0,0,0,0,0,0,0,0],"split_type":[0,0,0,0,0,0,0,0,0,0,0,0,0,0,0,0,0,0,0,0,0,0,0,0,0,0,0],"sum_hessian":[4.1320503E1,2.4876139E1,1.6444365E1,1.2878481E1,1.1997659E1,1.170685E1,4.7375145E0,1.3892728E0,1.1489208E1,5.8849087E0,6.11275E0,4.6872635E0,7.019586E0,2.498943E0,2.2385716E0,2.2805882E0,9.208619E0,3.6944911E0,2.1904175E0,3.3618984E0,2.7508519E0,2.4743893E0,2.2128744E0,1.293095E0,1.2058481E0,1.0877514E0,1.1508203E0],"tree_param":{"num_deleted":"0","num_feature":"13","num_nodes":"27","size_leaf_vector":"1"}},{"base_weights":[-6.6480245E-3,-4.7452995E-1,3.9200807E-1,4.4620603E-2,-7.9526347E-1,6.514816E-1,-4.1519247E-2,4.233754E-1,-3.8798833E-1,-3.787661E-2,-9.502621E-1,2.833256E-1,9.3221444E-1,-3.7737992E-1,5.7245857E-1,7.137298E-2,-2.1026501E-2,2.2269445E-2,-6.82853E-2,6.076915E-2,-6.426228E-2,-1.02617E-1,-3.1355646E-2,7.628947E-2,-1.9549236E-2,1.5059602E-2,1.0278747E-1,2.2125576E-2,-9.729745E-2,9.120827E-2,-1.564523E-2],"categories":[],"categories_nodes":[],"categories_segments":[],"categories_sizes":[],"default_left":[0,0,0,0,0,0,0,0,0,0,0,0,0,0,0,0,0,0,0,0,0,0,0,0,0,0,0,0,0,0,0],"id":15,"left_children":[1,3,5,7,9,11,13,15,17,19,21,23,25,27,29,-1,-1,-1,-1,-1,-1,-1,-1,-1,-1,-1,-1,-1,-1,-1,-1],"loss_changes":[7.8332863E0,3.2514644E0,2.5788243E0,1.5279336E0,1.3717508E0,1.2087693E0,2.1613662E0,1.0544567E0,9.4560677E-1,1.5924495E0,1.5733814E-1,1.8947884E0,4.171114E-1,2.6043558E0,1.0668335E0,0E0,0E0,0E0,0E0,0E0,0E0,0E0,0E0,0E0,0E0,0E0,0E0,0E0,0E0,0E0,0E0],"parents":[2147483647,0,0,1,1,2,2,3,3,4,4,5,5,6,6,7,7,8,8,9,9,10,10,11,11,12,12,13,13,14,14],"right_children":[2,4,6,8,10,12,14,16,18,20,22,24,26,28,30,-1,-1,-1,-1,-1,-1,-1,-1,-1,-1,-1,-1,-1,-1,-1,-1],"split_conditions":[1E0,5E-1,1E0,3E0,1.17E2,1.61E2,6E1,1E0,1.22E2,1E0,2E0,2.41E2,1.14E2,5.5E1,1.1E0,7.137298E-2,-2.1026501E-2,2.2269445E-2,-6.82853E-2,6.076915E-2,-6.426228E-2,-1.02617E-1,-3.1355646E-2,7.628947E-2,-1.9549236E-2,1.5059602E-2,1.0278747E-1,2.2125576E-2,-9.729745E-2,9.120827E-2,-1.564523E-2],"split_indices":[2,9,11,12,3,7,0,8,3,11,10,4,3,0,9,0,0,0,0,0,0,0,0,0,0,0,0,0,0,0,0],"split_type":[0,0,0,0,0,0,0,0,0,0,0,0,0,0,0,0,0,0,0,0,0,0,0,0,0,0,0,0,0,0,0],"sum_hessian":[3.999884E1,1.831415E1,2.168469E1,7.322528E0,1.0991622E1,1.3250995E1,8.433696E0,3.9156601E0,3.406868E0,2.0786843E0,8.912937E0,6.602128E0,6.6488667E0,5.7006536E0,2.7330425E0,2.5985334E0,1.3171268E0,1.1890434E0,2.2178247E0,1.0030527E0,1.0756316E0,7.4169984E0,1.495939E0,3.0020657E0,3.6000624E0,1.0057113E0,5.643155E0,3.1565247E0,2.5441287E0,1.6929464E0,1.040096E0],"tree_param":{"num_deleted":"0","num_feature":"13","num_nodes":"31","size_leaf_vector":"1"}},{"base_weights":[-4.969405E-3,3.6428052E-1,-4.7484148E-1,-1.7778384E-2,8.871844E-1,1.3142115E-2,-8.161339E-1,3.9279112E-1,-4.1581896E-1,1.0493206E-1,2.642646E-1,-4.089719E-1,7.423715E-2,-1.0387695E-1,-1.6135955E-1,-3.9809518E-2,6.749144E-2,1.8464794E-2,-9.7107716E-2,7.859208E-2,-3.0745745E-2,4.1388515E-2,-7.559436E-2,-7.165564E-2,4.2313453E-2],"categories":[],"categories_nodes":[],"categories_segments":[],"categories_sizes":[],"default_left":[0,0,0,0,0,0,0,0,0,0,0,0,0,0,0,0,0,0,0,0,0,0,0,0,0],"id":16,"left_children":[1,3,5,7,9,11,13,15,17,-1,19,21,-1,-1,23,-1,-1,-1,-1,-1,-1,-1,-1,-1,-1],"loss_changes":[7.083512E0,4.58455E0,3.002059E0,2.4830413E0,6.9980955E-1,2.8819308E0,1.375421E0,1.942475E0,2.7442548E0,0E0,1.2361807E0,2.0116456E0,0E0,0E0,1.5589709E0,0E0,0E0,0E0,0E0,0E0,0E0,0E0,0E0,0E0,0E0],"parents":[2147483647,0,0,1,1,2,2,3,3,4,4,5,5,6,6,7,7,8,8,10,10,11,11,14,14],"right_children":[2,4,6,8,10,12,14,16,18,-1,20,22,-1,-1,24,-1,-1,-1,-1,-1,-1,-1,-1,-1,-1],"split_conditions":[1E0,1.61E2,6E-1,2.37E2,3E0,2E0,2E0,4.5E1,1E0,1.0493206E-1,2.22E2,1.48E2,7.423715E-2,-1.0387695E-1,2.31E2,-3.9809518E-2,6.749144E-2,1.8464794E-2,-9.7107716E-2,7.859208E-2,-3.0745745E-2,4.1388515E-2,-7.559436E-2,-7.165564E-2,4.2313453E-2],"split_indices":[11,7,9,4,12,2,10,0,6,0,4,7,0,0,4,0,0,0,0,0,0,0,0,0,0],"split_type":[0,0,0,0,0,0,0,0,0,0,0,0,0,0,0,0,0,0,0,0,0,0,0,0,0],"sum_hessian":[3.883013E1,2.1869032E1,1.69611E1,1.3194495E1,8.674537E0,7.3761263E0,9.584972E0,6.501519E0,6.6929765E0,6.3398533E0,2.3346832E0,4.949996E0,2.4261303E0,6.7152176E0,2.8697546E0,1.6013446E0,4.9001746E0,3.5362566E0,3.15672E0,1.024889E0,1.3097942E0,1.4109713E0,3.5390248E0,1.3558873E0,1.5138674E0],"tree_param":{"num_deleted":"0","num_feature":"13","num_nodes":"25","size_leaf_vector":"1"}},{"base_weights":[-4.1791326E-3,-4.4087964E-1,3.6359102E-1,-1.055013E-2,-8.0635786E-1,8.1826526E-1,1.0888104E-1,-7.54938E-2,2.664239E-1,-3.5996968E-1,-9.7644754E-2,3.1837067E-1,9.692552E-2,8.4399216E-2,-9.766581E-2,6.0790163E-2,-2.5785802E-2,2.024394E-2,-6.376433E-2,6.614207E-2,-2.1955235E-2,8.722139E-3,-8.103408E-2],"categories":[],"categories_nodes":[],"categories_segments":[],"categories_sizes":[],"default_left":[0,0,0,0,0,0,0,0,0,0,0,0,0,0,0,0,0,0,0,0,0,0,0],"id":17,"left_children":[1,3,5,7,9,11,13,-1,15,17,-1,19,-1,-1,21,-1,-1,-1,-1,-1,-1,-1,-1],"loss_changes":[6.379196E0,2.8466578E0,2.4086683E0,2.128981E0,3.9283848E-1,2.6434755E-1,2.3564844E0,0E0,1.5091426E0,7.988361E-1,0E0,7.4494827E-1,0E0,0E0,1.7293692E0,0E0,0E0,0E0,0E0,0E0,0E0,0E0,0E0],"parents":[2147483647,0,0,1,1,2,2,3,3,4,4,5,5,6,6,8,8,9,9,11,11,14,14],"right_children":[2,4,6,8,10,12,14,-1,16,18,-1,20,-1,-1,22,-1,-1,-1,-1,-1,-1,-1,-1],"split_conditions":[1E0,3E0,1E0,1.26E2,5E-1,2E0,4.5E1,-7.54938E-2,1E0,1.22E2,-9.7644754E-2,5.7E1,9.692552E-2,8.4399216E-2,2.78E2,6.0790163E-2,-2.5785802E-2,2.024394E-2,-6.376433E-2,6.614207E-2,-2.1955235E-2,8.722139E-3,-8.103408E-2],"split_indices":[2,12,1,7,9,2,0,0,8,3,0,0,0,0,4,0,0,0,0,0,0,0,0],"split_type":[0,0,0,0,0,0,0,0,0,0,0,0,0,0,0,0,0,0,0,0,0,0,0],"sum_hessian":[3.772159E1,1.7153845E1,2.0567743E1,8.35049E0,8.803354E0,6.590581E0,1.3977161E1,1.7965279E0,6.553962E0,3.2887135E0,5.514641E0,2.2499719E0,4.340609E0,2.3888648E0,1.1588297E1,3.8723269E0,2.6816354E0,1.1765785E0,2.1121347E0,1.233652E0,1.01632E0,9.898081E0,1.6902162E0],"tree_param":{"num_deleted":"0","num_feature":"13","num_nodes":"23","size_leaf_vector":"1"}},{"base_weights":[-4.6155658E-3,3.3841288E-1,-4.4187117E-1,-2.042429E-2,8.507369E-1,1.2806273E-2,-7.7497697E-1,3.6044025E-1,-3.8447848E-1,1.01013005E-1,2.6529813E-1,-3.7049016E-1,6.92405E-2,-9.8788254E-2,-1.6708621E-1,-3.8117975E-2,6.273876E-2,1.7633367E-2,-8.959703E-2,-1.6306426E-2,5.9105556E-2,3.9413493E-2,-6.978345E-2,4.6912897E-2,-6.1690923E-2],"categories":[],"categories_nodes":[],"categories_segments":[],"categories_sizes":[],"default_left":[0,0,0,0,0,0,0,0,0,0,0,0,0,0,0,0,0,0,0,0,0,0,0,0,0],"id":18,"left_children":[1,3,5,7,9,11,13,15,17,-1,19,21,-1,-1,23,-1,-1,-1,-1,-1,-1,-1,-1,-1,-1],"loss_changes":[5.798843E0,4.001687E0,2.58341E0,2.0412197E0,5.6723356E-1,2.3843222E0,1.1062875E0,1.6689789E0,2.3092937E0,0E0,5.5290496E-1,1.7453382E0,0E0,0E0,1.3630565E0,0E0,0E0,0E0,0E0,0E0,0E0,0E0,0E0,0E0,0E0],"parents":[2147483647,0,0,1,1,2,2,3,3,4,4,5,5,6,6,7,7,8,8,10,10,11,11,14,14],"right_children":[2,4,6,8,10,12,14,16,18,-1,20,22,-1,-1,24,-1,-1,-1,-1,-1,-1,-1,-1,-1,-1],"split_conditions":[1E0,1.61E2,6E-1,2.37E2,3E0,2E0,2E0,4.5E1,1E0,1.01013005E-1,4.9E1,1.48E2,6.92405E-2,-9.8788254E-2,2E0,-3.8117975E-2,6.273876E-2,1.7633367E-2,-8.959703E-2,-1.6306426E-2,5.9105556E-2,3.9413493E-2,-6.978345E-2,4.6912897E-2,-6.1690923E-2],"split_indices":[11,7,9,4,12,2,10,0,6,0,0,7,0,0,11,0,0,0,0,0,0,0,0,0,0],"split_type":[0,0,0,0,0,0,0,0,0,0,0,0,0,0,0,0,0,0,0,0,0,0,0,0,0],"sum_hessian":[3.6664288E1,2.067261E1,1.5991677E1,1.2722071E1,7.9505386E0,7.1684947E0,8.823183E0,6.222339E0,6.499731E0,5.6789494E0,2.2715895E0,4.8742423E0,2.2942524E0,6.0715904E0,2.7515924E0,1.533665E0,4.6886744E0,3.4129477E0,3.0867836E0,1.1969985E0,1.0745909E0,1.400007E0,3.474235E0,1.1218976E0,1.6296947E0],"tree_param":{"num_deleted":"0","num_feature":"13","num_nodes":"25","size_leaf_vector":"1"}},{"base_weights":[-3.5056318E-3,-4.1384104E-1,3.3703902E-1,-1.2105202E-2,-7.6454544E-1,7.835354E-1,9.544855E-2,-6.917205E-2,2.374997E-1,-3.3004144E-1,-9.423448E-2,3.0368453E-1,9.32452E-2,8.116556E-2,-9.800007E-2,5.6666255E-2,-2.502494E-2,8.831658E-3,-7.02877E-2,6.2658966E-2,-1.8199906E-2,2.0045422E-2,-4.63315E-2],"categories":[],"categories_nodes":[],"categories_segments":[],"categories_sizes":[],"default_left":[0,0,0,0,0,0,0,0,0,0,0,0,0,0,0,0,0,0,0,0,0,0,0],"id":19,"left_children":[1,3,5,7,9,11,13,-1,15,17,-1,19,-1,-1,21,-1,-1,-1,-1,-1,-1,-1,-1],"loss_changes":[5.2597256E0,2.3953164E0,2.1446147E0,1.6860497E0,3.9170504E-1,2.2312355E-1,2.087078E0,0E0,1.3146973E0,7.141189E-1,0E0,6.097841E-1,0E0,0E0,1.4340008E0,0E0,0E0,0E0,0E0,0E0,0E0,0E0,0E0],"parents":[2147483647,0,0,1,1,2,2,3,3,4,4,5,5,6,6,8,8,9,9,11,11,14,14],"right_children":[2,4,6,8,10,12,14,-1,16,18,-1,20,-1,-1,22,-1,-1,-1,-1,-1,-1,-1,-1],"split_conditions":[1E0,3E0,1E0,1.26E2,5E-1,2E0,4.5E1,-6.917205E-2,1E0,2.34E2,-9.423448E-2,5.7E1,9.32452E-2,8.116556E-2,7E-1,5.6666255E-2,-2.502494E-2,8.831658E-3,-7.02877E-2,6.2658966E-2,-1.8199906E-2,2.0045422E-2,-4.63315E-2],"split_indices":[2,12,1,7,9,2,0,0,8,4,0,0,0,0,9,0,0,0,0,0,0,0,0],"split_type":[0,0,0,0,0,0,0,0,0,0,0,0,0,0,0,0,0,0,0,0,0,0,0],"sum_hessian":[3.5641872E1,1.606695E1,1.9574923E1,7.970812E0,8.096139E0,6.085234E0,1.3489688E1,1.6653084E0,6.3055034E0,3.180334E0,4.915805E0,2.1610425E0,3.924192E0,2.18913E0,1.1300558E1,3.6681921E0,2.6373112E0,1.8582815E0,1.3220525E0,1.1237812E0,1.0372612E0,6.467795E0,4.832763E0],"tree_param":{"num_deleted":"0","num_feature":"13","num_nodes":"23","size_leaf_vector":"1"}},{"base_weights":[-3.2458703E-3,3.138169E-1,-4.0862155E-1,-2.269698E-2,8.132936E-1,-7.6657254E-1,-2.9411256E-2,3.341194E-1,-3.6030242E-1,9.7412534E-2,2.588847E-1,-1.3141167E-2,-8.9989126E-2,-3.6055708E-1,5.835674E-1,-3.6502033E-2,5.8746245E-2,1.6805429E-2,-8.3711945E-2,-1.6199362E-2,5.785827E-2,1.7402804E-2,-8.590161E-2,1.45279635E-2,7.931752E-2],"categories":[],"categories_nodes":[],"categories_segments":[],"categories_sizes":[],"default_left":[0,0,0,0,0,0,0,0,0,0,0,0,0,0,0,0,0,0,0,0,0,0,0,0,0],"id":20,"left_children":[1,3,5,7,9,11,13,15,17,-1,19,-1,-1,21,23,-1,-1,-1,-1,-1,-1,-1,-1,-1,-1],"loss_changes":[4.7122154E0,3.477212E0,2.161071E0,1.7186253E0,4.888277E-1,5.7911825E-1,2.007111E0,1.4488122E0,1.9793642E0,0E0,5.284264E-1,0E0,0E0,1.8455458E0,2.0506418E-1,0E0,0E0,0E0,0E0,0E0,0E0,0E0,0E0,0E0,0E0],"parents":[2147483647,0,0,1,1,2,2,3,3,4,4,5,5,6,6,7,7,8,8,10,10,13,13,14,14],"right_children":[2,4,6,8,10,12,14,16,18,-1,20,-1,-1,22,24,-1,-1,-1,-1,-1,-1,-1,-1,-1,-1],"split_conditions":[1E0,1.61E2,1E0,2.37E2,3E0,1E0,6E1,4.5E1,1E0,9.7412534E-2,4.9E1,-1.3141167E-2,-8.9989126E-2,5.5E1,1E0,-3.6502033E-2,5.8746245E-2,1.6805429E-2,-8.3711945E-2,-1.6199362E-2,5.785827E-2,1.7402804E-2,-8.590161E-2,1.45279635E-2,7.931752E-2],"split_indices":[11,7,2,4,12,1,0,0,6,0,0,0,0,0,6,0,0,0,0,0,0,0,0,0,0],"split_type":[0,0,0,0,0,0,0,0,0,0,0,0,0,0,0,0,0,0,0,0,0,0,0,0,0],"sum_hessian":[3.4664825E1,1.9577911E1,1.5086914E1,1.2267471E1,7.31044E0,7.2355275E0,7.8513865E0,5.969068E0,6.2984033E0,5.079768E0,2.230672E0,1.5997324E0,5.635795E0,5.364922E0,2.486465E0,1.4704145E0,4.4986534E0,3.2949016E0,3.0035017E0,1.175903E0,1.054769E0,2.902707E0,2.4622147E0,1.3521776E0,1.1342874E0],"tree_param":{"num_deleted":"0","num_feature":"13","num_nodes":"25","size_leaf_vector":"1"}},{"base_weights":[-2.3577954E-3,-3.8669327E-1,3.1142667E-1,3.889426E-2,-6.76995E-1,7.4972045E-1,8.3892524E-2,-5.2624684E-2,2.756357E-1,4.328605E-3,-8.416755E-1,2.792188E-1,8.999892E-2,7.803994E-2,-9.668254E-2,7.50362E-2,-2.912112E-2,-9.143506E-2,-2.2827564E-2,5.8919616E-2,-1.6683267E-2,7.3739286E-3,-7.382817E-2],"categories":[],"categories_nodes":[],"categories_segments":[],"categories_sizes":[],"default_left":[0,0,0,0,0,0,0,0,0,0,0,0,0,0,0,0,0,0,0,0,0,0,0],"id":21,"left_children":[1,3,5,7,9,11,13,-1,15,-1,17,19,-1,-1,21,-1,-1,-1,-1,-1,-1,-1,-1],"loss_changes":[4.312883E0,2.0119305E0,1.9009608E0,1.1435187E0,1.176166E0,2.15585E-1,1.8474331E0,0E0,1.8104415E0,0E0,1.4208698E-1,5.197717E-1,0E0,0E0,1.3750788E0,0E0,0E0,0E0,0E0,0E0,0E0,0E0,0E0],"parents":[2147483647,0,0,1,1,2,2,3,3,4,4,5,5,6,6,8,8,10,10,11,11,14,14],"right_children":[2,4,6,8,10,12,14,-1,16,-1,18,20,-1,-1,22,-1,-1,-1,-1,-1,-1,-1,-1],"split_conditions":[1E0,5E-1,1E0,4.5E1,1.17E2,2E0,4.5E1,-5.2624684E-2,5.8E1,4.328605E-3,1.57E2,5.7E1,8.999892E-2,7.803994E-2,2.78E2,7.50362E-2,-2.912112E-2,-9.143506E-2,-2.2827564E-2,5.8919616E-2,-1.6683267E-2,7.3739286E-3,-7.382817E-2],"split_indices":[2,9,1,0,3,2,0,0,0,0,7,0,0,0,4,0,0,0,0,0,0,0,0],"split_type":[0,0,0,0,0,0,0,0,0,0,0,0,0,0,0,0,0,0,0,0,0,0,0],"sum_hessian":[3.376375E1,1.507138E1,1.869237E1,6.4628077E0,8.608572E0,5.603499E0,1.308887E1,1.5469958E0,4.9158115E0,1.7391254E0,6.8694468E0,2.048291E0,3.555208E0,2.010872E0,1.1077998E1,2.4991019E0,2.41671E0,5.7031198E0,1.1663275E0,1.0191392E0,1.0291518E0,9.452334E0,1.6256635E0],"tree_param":{"num_deleted":"0","num_feature":"13","num_nodes":"23","size_leaf_vector":"1"}},{"base_weights":[-1.2960975E-3,2.9577148E-1,-3.8085157E-1,-1.7653473E-2,7.7696675E-1,3.499273E-2,-7.123227E-1,3.1290358E-1,-3.2841113E-1,9.414769E-2,2.4637368E-1,-2.992425E-1,6.3477084E-2,-9.172761E-2,-1.5181628E-1,-1.4445617E-2,7.047961E-2,1.6691886E-2,-7.751546E-2,-1.5542685E-2,5.510487E-2,-6.672222E-2,3.676268E-2,4.485705E-2,-5.7605833E-2],"categories":[],"categories_nodes":[],"categories_segments":[],"categories_sizes":[],"default_left":[0,0,0,0,0,0,0,0,0,0,0,0,0,0,0,0,0,0,0,0,0,0,0,0,0],"id":22,"left_children":[1,3,5,7,9,11,13,15,17,-1,19,21,-1,-1,23,-1,-1,-1,-1,-1,-1,-1,-1,-1,-1],"loss_changes":[3.9466753E0,2.9753995E0,2.143013E0,1.4247589E0,4.4608545E-1,1.7473487E0,8.483887E-1,1.3113301E0,1.7052352E0,0E0,4.7651333E-1,1.6362815E0,0E0,0E0,1.1499609E0,0E0,0E0,0E0,0E0,0E0,0E0,0E0,0E0,0E0,0E0],"parents":[2147483647,0,0,1,1,2,2,3,3,4,4,5,5,6,6,7,7,8,8,10,10,11,11,14,14],"right_children":[2,4,6,8,10,12,14,16,18,-1,20,22,-1,-1,24,-1,-1,-1,-1,-1,-1,-1,-1,-1,-1],"split_conditions":[1E0,1.61E2,6E-1,2.37E2,3E0,2E0,2E0,2.01E2,1E0,9.414769E-2,4.9E1,1E-1,6.3477084E-2,-9.172761E-2,2E0,-1.4445617E-2,7.047961E-2,1.6691886E-2,-7.751546E-2,-1.5542685E-2,5.510487E-2,-6.672222E-2,3.676268E-2,4.485705E-2,-5.7605833E-2],"split_indices":[11,7,9,4,12,2,10,4,6,0,0,9,0,0,11,0,0,0,0,0,0,0,0,0,0],"split_type":[0,0,0,0,0,0,0,0,0,0,0,0,0,0,0,0,0,0,0,0,0,0,0,0,0],"sum_hessian":[3.3003613E1,1.8637386E1,1.4366225E1,1.1869524E1,6.767862E0,6.768852E0,7.5973735E0,5.748191E0,6.121333E0,4.575E0,2.192862E0,4.668397E0,2.1004553E0,5.0970764E0,2.5002968E0,2.9438946E0,2.8042963E0,3.1998463E0,2.9214869E0,1.1569521E0,1.0359099E0,3.0080307E0,1.660366E0,1.0114907E0,1.4888061E0],"tree_param":{"num_deleted":"0","num_feature":"13","num_nodes":"25","size_leaf_vector":"1"}},{"base_weights":[6.747071E-4,-3.570519E-1,2.9143137E-1,1.1473707E-2,-6.932458E-1,7.2170484E-1,7.4648805E-2,3.6794534E-1,-4.0775156E-1,-1.9460213E-1,-8.385885E-2,2.697742E-2,8.6899094E-2,7.469246E-2,-9.2847645E-2,6.447103E-2,-1.4733674E-2,1.5807692E-2,-6.7867085E-2,-3.6487292E-2,6.926103E-3,-6.565396E-2,9.714727E-3],"categories":[],"categories_nodes":[],"categories_segments":[],"categories_sizes":[],"default_left":[0,0,0,0,0,0,0,0,0,0,0,0,0,0,0,0,0,0,0,0,0,0,0],"id":23,"left_children":[1,3,5,7,9,11,13,15,17,19,-1,-1,-1,-1,21,-1,-1,-1,-1,-1,-1,-1,-1],"loss_changes":[3.552521E0,1.9053943E0,1.7034324E0,1.388873E0,4.1841292E-1,1.7803001E-1,1.605644E0,8.088876E-1,7.639803E-1,1.6514897E-1,0E0,0E0,0E0,0E0,1.3287826E0,0E0,0E0,0E0,0E0,0E0,0E0,0E0,0E0],"parents":[2147483647,0,0,1,1,2,2,3,3,4,4,5,5,6,6,7,7,8,8,9,9,14,14],"right_children":[2,4,6,8,10,12,14,16,18,20,-1,-1,-1,-1,22,-1,-1,-1,-1,-1,-1,-1,-1],"split_conditions":[1E0,3E0,1E0,1E0,1.22E2,2E0,4.5E1,1E0,5.2E1,4.7E1,-8.385885E-2,2.697742E-2,8.6899094E-2,7.469246E-2,5.1E1,6.447103E-2,-1.4733674E-2,1.5807692E-2,-6.7867085E-2,-3.6487292E-2,6.926103E-3,-6.565396E-2,9.714727E-3],"split_indices":[2,12,1,8,3,2,0,11,0,0,0,0,0,0,0,0,0,0,0,0,0,0,0],"split_type":[0,0,0,0,0,0,0,0,0,0,0,0,0,0,0,0,0,0,0,0,0,0,0],"sum_hessian":[3.215468E1,1.43147745E1,1.7839905E1,7.289794E0,7.0249805E0,5.196549E0,1.2643356E1,4.005876E0,3.2839177E0,2.1133583E0,4.911622E0,1.973309E0,3.2232397E0,1.8317934E0,1.0811563E1,2.4426932E0,1.563183E0,1.1981137E0,2.085804E0,1.0518129E0,1.0615454E0,2.1064417E0,8.705121E0],"tree_param":{"num_deleted":"0","num_feature":"13","num_nodes":"23","size_leaf_vector":"1"}},{"base_weights":[1.2403423E-3,2.8439346E-1,-3.4774968E-1,5.378452E-1,-9.707587E-2,-6.2382233E-1,1.0532085E-1,6.514694E-1,-2.430152E-2,4.5595387E-1,-3.6865667E-1,-1.8501231E-1,-9.664305E-2,-4.488315E-1,5.192054E-1,2.7958063E-2,9.451553E-2,1.3067792E-4,6.9804125E-2,-7.000976E-2,3.6597166E-2,3.16215E-2,-5.5945527E-2,1.8726418E-2,-8.444991E-2,7.0727214E-2,7.7295527E-3],"categories":[],"categories_nodes":[],"categories_segments":[],"categories_sizes":[],"default_left":[0,0,0,0,0,0,0,0,0,0,0,0,0,0,0,0,0,0,0,0,0,0,0,0,0,0,0],"id":24,"left_children":[1,3,5,7,9,11,13,15,-1,17,19,21,-1,23,25,-1,-1,-1,-1,-1,-1,-1,-1,-1,-1,-1,-1],"loss_changes":[3.2997475E0,1.8343527E0,1.9367623E0,1.1544702E0,1.4004413E0,1.2403309E0,1.7282871E0,8.359051E-1,0E0,3.457231E-1,1.7307096E0,1.1857792E0,0E0,9.946636E-1,2.940265E-1,0E0,0E0,0E0,0E0,0E0,0E0,0E0,0E0,0E0,0E0,0E0,0E0],"parents":[2147483647,0,0,1,1,2,2,3,3,4,4,5,5,6,6,7,7,9,9,10,10,11,11,13,13,14,14],"right_children":[2,4,6,8,10,12,14,16,-1,18,20,22,-1,24,26,-1,-1,-1,-1,-1,-1,-1,-1,-1,-1,-1,-1],"split_conditions":[8E-1,1E0,2E0,1.42E2,1E0,3E0,2.31E2,1.59E2,-2.430152E-2,5.9E1,1E0,2.37E2,-9.664305E-2,1E0,6.3E1,2.7958063E-2,9.451553E-2,1.3067792E-4,6.9804125E-2,-7.000976E-2,3.6597166E-2,3.16215E-2,-5.5945527E-2,1.8726418E-2,-8.444991E-2,7.0727214E-2,7.7295527E-3],"split_indices":[9,11,2,3,1,12,4,7,0,0,5,4,0,11,0,0,0,0,0,0,0,0,0,0,0,0,0],"split_type":[0,0,0,0,0,0,0,0,0,0,0,0,0,0,0,0,0,0,0,0,0,0,0,0,0,0,0],"sum_hessian":[3.1391489E1,1.7432623E1,1.3958866E1,1.0227469E1,7.2051544E0,8.439493E0,5.519373E0,9.072952E0,1.1545167E0,2.1493886E0,5.0557656E0,4.375455E0,4.0640388E0,2.3237092E0,3.195664E0,4.864765E0,4.208187E0,1.0961622E0,1.0532265E0,3.5163188E0,1.5394467E0,1.9374715E0,2.4379833E0,1.0930995E0,1.2306098E0,1.8204379E0,1.375226E0],"tree_param":{"num_deleted":"0","num_feature":"13","num_nodes":"27","size_leaf_vector":"1"}},{"base_weights":[1.9215326E-3,2.4453332E-1,-3.69037E-1,5.016025E-1,-1.0642796E-1,-6.410735E-1,1.4000173E-1,1.7783263E-1,8.2573816E-2,4.74711E-1,-3.6630663E-1,-2.5033957E-1,-9.35489E-2,5.1852745E-1,-4.5120683E-2,-3.460933E-2,6.427073E-2,1.2384499E-4,7.136285E-2,-6.349917E-2,3.437751E-2,3.8852334E-2,-5.228352E-2,7.790645E-2,4.7992547E-3],"categories":[],"categories_nodes":[],"categories_segments":[],"categories_sizes":[],"default_left":[0,0,0,0,0,0,0,0,0,0,0,0,0,0,0,0,0,0,0,0,0,0,0,0,0],"id":25,"left_children":[1,3,5,7,9,11,13,15,-1,17,19,21,-1,23,-1,-1,-1,-1,-1,-1,-1,-1,-1,-1,-1],"loss_changes":[2.9321594E0,1.8300905E0,1.8739593E0,1.064424E0,1.5559038E0,7.5240827E-1,1.4218793E0,1.9392111E0,0E0,3.6825383E-1,1.5323765E0,1.0823941E0,0E0,4.1638505E-1,0E0,0E0,0E0,0E0,0E0,0E0,0E0,0E0,0E0,0E0,0E0],"parents":[2147483647,0,0,1,1,2,2,3,3,4,4,5,5,6,6,7,7,9,9,10,10,11,11,13,13],"right_children":[2,4,6,8,10,12,14,16,-1,18,20,22,-1,24,-1,-1,-1,-1,-1,-1,-1,-1,-1,-1,-1],"split_conditions":[9E-1,1E0,2E0,1.59E2,1E0,3E0,2E0,1E-1,8.2573816E-2,5.9E1,1E0,1.17E2,-9.35489E-2,2.41E2,-4.5120683E-2,-3.460933E-2,6.427073E-2,1.2384499E-4,7.136285E-2,-6.349917E-2,3.437751E-2,3.8852334E-2,-5.228352E-2,7.790645E-2,4.7992547E-3],"split_indices":[9,11,2,7,1,12,9,9,0,0,5,3,0,4,0,0,0,0,0,0,0,0,0,0,0],"split_type":[0,0,0,0,0,0,0,0,0,0,0,0,0,0,0,0,0,0,0,0,0,0,0,0,0],"sum_hessian":[3.0577244E1,1.8692747E1,1.1884497E1,1.0541888E1,8.150859E0,7.576267E0,4.30823E0,6.048675E0,4.493213E0,2.263213E0,5.8876457E0,4.0506864E0,3.5255804E0,2.7015066E0,1.6067233E0,2.9638505E0,3.0848248E0,1.0961373E0,1.1670758E0,4.3481245E0,1.5395211E0,1.0838398E0,2.9668467E0,1.3167287E0,1.3847779E0],"tree_param":{"num_deleted":"0","num_feature":"13","num_nodes":"25","size_leaf_vector":"1"}},{"base_weights":[4.6035126E-3,-3.2159513E-1,2.593811E-1,2.9835504E-2,-6.242971E-1,6.6548383E-1,6.48588E-2,5.421668E-1,-2.6387453E-1,-8.372785E-2,-7.5899825E-2,2.2775942E-2,8.2324736E-2,-5.1028097E-1,2.3615928E-1,7.887552E-2,3.0183184E-3,6.953885E-3,-5.4519873E-2,2.7489806E-2,-3.6330592E-2,1.739696E-3,-7.98352E-2,3.9059278E-2,-4.7335275E-2],"categories":[],"categories_nodes":[],"categories_segments":[],"categories_sizes":[],"default_left":[0,0,0,0,0,0,0,0,0,0,0,0,0,0,0,0,0,0,0,0,0,0,0,0,0],"id":26,"left_children":[1,3,5,7,9,11,13,15,17,-1,19,-1,-1,21,23,-1,-1,-1,-1,-1,-1,-1,-1,-1,-1],"loss_changes":[2.6513798E0,1.5075823E0,1.3710517E0,1.261322E0,8.200679E-1,2.0543027E-1,1.422212E0,3.5939425E-1,5.4405653E-1,0E0,4.2410812E-1,0E0,0E0,5.228877E-1,1.3752697E0,0E0,0E0,0E0,0E0,0E0,0E0,0E0,0E0,0E0,0E0],"parents":[2147483647,0,0,1,1,2,2,3,3,4,4,5,5,6,6,7,7,8,8,10,10,13,13,14,14],"right_children":[2,4,6,8,10,12,14,16,18,-1,20,-1,-1,22,24,-1,-1,-1,-1,-1,-1,-1,-1,-1,-1],"split_conditions":[1E0,1E0,1E0,1E0,1.48E2,2E0,1.43E2,7E-1,2.34E2,-8.372785E-2,5.2E1,2.2775942E-2,8.2324736E-2,2.35E2,2.78E2,7.887552E-2,3.0183184E-3,6.953885E-3,-5.4519873E-2,2.7489806E-2,-3.6330592E-2,1.739696E-3,-7.98352E-2,3.9059278E-2,-4.7335275E-2],"split_indices":[2,8,1,1,7,2,7,9,4,0,0,0,0,4,4,0,0,0,0,0,0,0,0,0,0],"split_type":[0,0,0,0,0,0,0,0,0,0,0,0,0,0,0,0,0,0,0,0,0,0,0,0,0],"sum_hessian":[2.9899088E1,1.2996744E1,1.6902344E1,6.431428E0,6.5653167E0,4.689982E0,1.2212361E1,2.0352776E0,4.39615E0,4.349374E0,2.2159429E0,1.8899306E0,2.8000515E0,2.3484838E0,9.863877E0,1.0088133E0,1.0264645E0,2.3563368E0,2.0398133E0,1.0175173E0,1.1984257E0,1.1611469E0,1.1873369E0,8.469815E0,1.3940624E0],"tree_param":{"num_deleted":"0","num_feature":"13","num_nodes":"25","size_leaf_vector":"1"}},{"base_weights":[2.8943813E-3,2.5270316E-1,-3.1796533E-1,-1.5070401E-2,6.948807E-1,5.1903713E-2,-6.3878906E-1,2.864337E-1,-2.962197E-1,8.703323E-2,2.0166438E-2,-3.1990603E-1,5.0646275E-1,-8.3989754E-2,-1.17356926E-1,5.4651346E-2,-4.091817E-2,1.8270794E-2,-7.2598964E-2,1.5184506E-3,-6.6707894E-2,-1.2660053E-3,7.5354174E-2,-5.4469347E-2,3.5839275E-2],"categories":[],"categories_nodes":[],"categories_segments":[],"categories_sizes":[],"default_left":[0,0,0,0,0,0,0,0,0,0,0,0,0,0,0,0,0,0,0,0,0,0,0,0,0],"id":27,"left_children":[1,3,5,7,9,11,13,15,17,-1,-1,19,21,-1,23,-1,-1,-1,-1,-1,-1,-1,-1,-1,-1],"loss_changes":[2.5019343E0,2.087723E0,1.6550338E0,1.0940545E0,3.9893103E-1,1.3913212E0,6.7684174E-1,1.354928E0,1.5018876E0,0E0,0E0,5.468761E-1,4.7895277E-1,0E0,8.499678E-1,0E0,0E0,0E0,0E0,0E0,0E0,0E0,0E0,0E0,0E0],"parents":[2147483647,0,0,1,1,2,2,3,3,4,4,5,5,6,6,7,7,8,8,11,11,12,12,14,14],"right_children":[2,4,6,8,10,12,14,16,18,-1,-1,20,22,-1,24,-1,-1,-1,-1,-1,-1,-1,-1,-1,-1],"split_conditions":[1E0,1.61E2,6E-1,2.37E2,3E0,1E0,2E0,1.54E2,1E0,8.703323E-2,2.0166438E-2,1.6E2,1E0,-8.3989754E-2,2.31E2,5.4651346E-2,-4.091817E-2,1.8270794E-2,-7.2598964E-2,1.5184506E-3,-6.6707894E-2,-1.2660053E-3,7.5354174E-2,-5.4469347E-2,3.5839275E-2],"split_indices":[11,7,9,4,12,6,10,7,6,0,0,7,2,0,4,0,0,0,0,0,0,0,0,0,0],"split_type":[0,0,0,0,0,0,0,0,0,0,0,0,0,0,0,0,0,0,0,0,0,0,0,0,0],"sum_hessian":[2.9211798E1,1.6543835E1,1.2667962E1,1.0905568E1,5.6382675E0,6.27356E0,6.394402E0,5.253223E0,5.6523447E0,3.594864E0,2.0434039E0,3.6138303E0,2.65973E0,4.173857E0,2.2205448E0,3.9796426E0,1.2735806E0,2.945171E0,2.7071736E0,2.3255126E0,1.2883174E0,1.1636391E0,1.4960909E0,1.09345E0,1.1270949E0],"tree_param":{"num_deleted":"0","num_feature":"13","num_nodes":"25","size_leaf_vector":"1"}},{"base_weights":[1.8890359E-3,-2.7326673E-1,2.6799136E-1,-3.9672068E-1,4.5261085E-2,8.092787E-2,3.4122113E-2,-1.3990866E-1,-7.383236E-1,-3.38445E-1,3.1782454E-1,1.947998E-2,-5.9701014E-2,-8.1120834E-2,-2.3253527E-2,1.0049751E-2,-6.653271E-2,5.709098E-2,-3.2920744E-2],"categories":[],"categories_nodes":[],"categories_segments":[],"categories_sizes":[],"default_left":[0,0,0,0,0,0,0,0,0,0,0,0,0,0,0,0,0,0,0],"id":28,"left_children":[1,3,5,7,-1,-1,9,11,13,15,17,-1,-1,-1,-1,-1,-1,-1,-1],"loss_changes":[2.2369561E0,1.5258579E0,1.9380311E0,1.0698605E0,0E0,0E0,1.3639845E0,1.4729973E0,1.4308929E-2,8.7365425E-1,1.3774468E0,0E0,0E0,0E0,0E0,0E0,0E0,0E0,0E0],"parents":[2147483647,0,0,1,1,2,2,3,3,6,6,7,7,8,8,9,9,10,10],"right_children":[2,4,6,8,-1,-1,10,12,14,16,18,-1,-1,-1,-1,-1,-1,-1,-1],"split_conditions":[2E0,3E0,1E0,1.8E0,4.5261085E-2,8.092787E-2,1E0,3E0,3E0,1E0,5.8E1,1.947998E-2,-5.9701014E-2,-8.1120834E-2,-2.3253527E-2,1.0049751E-2,-6.653271E-2,5.709098E-2,-3.2920744E-2],"split_indices":[10,2,1,9,0,0,6,12,11,11,0,0,0,0,0,0,0,0,0],"split_type":[0,0,0,0,0,0,0,0,0,0,0,0,0,0,0,0,0,0,0],"sum_hessian":[2.855115E1,1.4023556E1,1.4527594E1,1.2372721E1,1.6508355E0,3.6407459E0,1.08868475E1,7.867566E0,4.5051546E0,4.6229215E0,6.2639265E0,4.873111E0,2.9944553E0,3.40993E0,1.0952244E0,2.2688415E0,2.35408E0,4.587272E0,1.6766541E0],"tree_param":{"num_deleted":"0","num_feature":"13","num_nodes":"19","size_leaf_vector":"1"}},{"base_weights":[5.868211E-5,-2.966667E-1,2.308037E-1,2.9867208E-2,-6.1292064E-1,4.7106457E-1,-5.3625982E-2,3.4576324E-1,-3.4038213E-1,-8.607645E-2,-2.5565675E-1,7.09106E-1,-1.5306833E-1,-5.6281215E-1,5.1006687E-1,6.3913286E-2,-6.0052997E-3,4.776073E-3,-6.9942735E-2,1.1736964E-2,-6.665351E-2,7.4419365E-3,9.2429094E-2,-4.8119016E-2,2.8532436E-2,-8.708024E-2,4.1803364E-3,8.2691506E-2,-1.7647289E-2],"categories":[],"categories_nodes":[],"categories_segments":[],"categories_sizes":[],"default_left":[0,0,0,0,0,0,0,0,0,0,0,0,0,0,0,0,0,0,0,0,0,0,0,0,0,0,0,0,0],"id":29,"left_children":[1,3,5,7,9,11,13,15,17,-1,19,21,23,25,27,-1,-1,-1,-1,-1,-1,-1,-1,-1,-1,-1,-1,-1,-1],"loss_changes":[2.0521572E0,1.3723257E0,1.1774788E0,9.8373145E-1,3.73832E-1,1.4816575E0,2.7607899E0,5.7313013E-1,5.787137E-1,0E0,7.1731E-1,8.692186E-1,6.2266034E-1,9.681494E-1,1.1498019E0,0E0,0E0,0E0,0E0,0E0,0E0,0E0,0E0,0E0,0E0,0E0,0E0,0E0,0E0],"parents":[2147483647,0,0,1,1,2,2,3,3,4,4,5,5,6,6,7,7,8,8,10,10,11,11,12,12,13,13,14,14],"right_children":[2,4,6,8,10,12,14,16,18,-1,20,22,24,26,28,-1,-1,-1,-1,-1,-1,-1,-1,-1,-1,-1,-1,-1,-1],"split_conditions":[1E0,3E0,5.7E1,1E0,1E0,3E0,6.1E1,1E0,5.8E1,-8.607645E-2,1.34E2,1.53E2,5.1E1,3E0,2.81E2,6.3913286E-2,-6.0052997E-3,4.776073E-3,-6.9942735E-2,1.1736964E-2,-6.665351E-2,7.4419365E-3,9.2429094E-2,-4.8119016E-2,2.8532436E-2,-8.708024E-2,4.1803364E-3,8.2691506E-2,-1.7647289E-2],"split_indices":[2,12,0,8,6,12,0,1,0,0,3,7,0,12,4,0,0,0,0,0,0,0,0,0,0,0,0,0,0],"split_type":[0,0,0,0,0,0,0,0,0,0,0,0,0,0,0,0,0,0,0,0,0,0,0,0,0,0,0,0,0],"sum_hessian":[2.7972486E1,1.2111751E1,1.5860735E1,6.4045634E0,5.707187E0,8.242247E0,7.6184883E0,3.4916382E0,2.9129252E0,2.5375168E0,3.1696703E0,5.8680525E0,2.3741944E0,4.00359E0,3.614898E0,1.6928931E0,1.798745E0,1.8163519E0,1.0965732E0,2.03578E0,1.1338905E0,1.8265353E0,4.0415173E0,1.3020394E0,1.072155E0,2.360763E0,1.642827E0,2.3334901E0,1.2814078E0],"tree_param":{"num_deleted":"0","num_feature":"13","num_nodes":"29","size_leaf_vector":"1"}},{"base_weights":[-2.6730911E-3,2.2842225E-1,-3.0208233E-1,-1.6593587E-2,6.5082335E-1,3.8962934E-2,-6.0208166E-1,2.6479754E-1,-2.7969542E-1,8.323089E-2,1.8519133E-2,-3.0305156E-1,4.6539482E-1,-7.913015E-1,-1.15978956E-1,5.1779814E-2,-3.8691897E-2,1.8792203E-2,-6.990892E-2,-3.949915E-6,-6.0472377E-2,-2.0019533E-3,7.082001E-2,-2.5840733E-2,-8.9326106E-2,-5.0962724E-2,3.304073E-2],"categories":[],"categories_nodes":[],"categories_segments":[],"categories_sizes":[],"default_left":[0,0,0,0,0,0,0,0,0,0,0,0,0,0,0,0,0,0,0,0,0,0,0,0,0,0,0],"id":30,"left_children":[1,3,5,7,9,11,13,15,17,-1,-1,19,21,23,25,-1,-1,-1,-1,-1,-1,-1,-1,-1,-1,-1,-1],"loss_changes":[2.0314147E0,1.7263758E0,1.3315741E0,9.229558E-1,3.6221266E-1,1.1506698E0,5.394671E-1,1.1985903E0,1.3888654E0,0E0,0E0,4.064927E-1,4.2379534E-1,2.8246403E-2,7.1217155E-1,0E0,0E0,0E0,0E0,0E0,0E0,0E0,0E0,0E0,0E0,0E0,0E0],"parents":[2147483647,0,0,1,1,2,2,3,3,4,4,5,5,6,6,7,7,8,8,11,11,12,12,13,13,14,14],"right_children":[2,4,6,8,10,12,14,16,18,-1,-1,20,22,24,26,-1,-1,-1,-1,-1,-1,-1,-1,-1,-1,-1,-1],"split_conditions":[1E0,1.61E2,6E-1,2.37E2,3E0,1E0,2E0,1.54E2,1E0,8.323089E-2,1.8519133E-2,1.6E2,1E0,2.32E2,2.31E2,5.1779814E-2,-3.8691897E-2,1.8792203E-2,-6.990892E-2,-3.949915E-6,-6.0472377E-2,-2.0019533E-3,7.082001E-2,-2.5840733E-2,-8.9326106E-2,-5.0962724E-2,3.304073E-2],"split_indices":[11,7,9,4,12,6,10,7,6,0,0,7,2,4,4,0,0,0,0,0,0,0,0,0,0,0,0],"split_type":[0,0,0,0,0,0,0,0,0,0,0,0,0,0,0,0,0,0,0,0,0,0,0,0,0,0,0],"sum_hessian":[2.7361807E1,1.5576425E1,1.1785382E1,1.0466181E1,5.110244E0,5.922589E0,5.862794E0,5.0541987E0,5.4119816E0,3.1104338E0,1.9998102E0,3.4471643E0,2.4754243E0,3.7681568E0,2.0946372E0,3.7888343E0,1.2653644E0,2.8198326E0,2.5921493E0,2.2187202E0,1.2284441E0,1.1312958E0,1.3441286E0,1.1728157E0,2.5953412E0,1.0377861E0,1.0568509E0],"tree_param":{"num_deleted":"0","num_feature":"13","num_nodes":"27","size_leaf_vector":"1"}},{"base_weights":[-4.515052E-3,-2.8736237E-1,2.1608013E-1,2.4612643E-2,-5.8946866E-1,3.0664605E-1,-4.074743E-2,3.2742035E-1,-3.29293E-1,-1.306227E-2,-7.425311E-1,7.187114E-1,6.653737E-2,6.1106063E-2,-6.3027847E-3,3.927982E-3,-6.713664E-2,-2.1878775E-2,-8.2743704E-2,8.8810824E-2,1.2213244E-2,-9.762629E-3,7.1237944E-2],"categories":[],"categories_nodes":[],"categories_segments":[],"categories_sizes":[],"default_left":[0,0,0,0,0,0,0,0,0,0,0,0,0,0,0,0,0,0,0,0,0,0,0],"id":31,"left_children":[1,3,5,7,9,11,-1,13,15,-1,17,19,21,-1,-1,-1,-1,-1,-1,-1,-1,-1,-1],"loss_changes":[1.7964953E0,1.2029228E0,1.0391331E0,8.754653E-1,3.557253E-1,1.4071603E0,0E0,5.215595E-1,5.0566006E-1,0E0,2.4419308E-2,4.2836595E-1,1.1715083E0,0E0,0E0,0E0,0E0,0E0,0E0,0E0,0E0,0E0,0E0],"parents":[2147483647,0,0,1,1,2,2,3,3,4,4,5,5,7,7,8,8,10,10,11,11,12,12],"right_children":[2,4,6,8,10,12,-1,14,16,-1,18,20,22,-1,-1,-1,-1,-1,-1,-1,-1,-1,-1],"split_conditions":[1E0,3E0,2E0,1E0,1.22E2,2.28E2,-4.074743E-2,1E0,5.8E1,-1.306227E-2,2.17E2,8E-1,6.6E1,6.1106063E-2,-6.3027847E-3,3.927982E-3,-6.713664E-2,-2.1878775E-2,-8.2743704E-2,8.8810824E-2,1.2213244E-2,-9.762629E-3,7.1237944E-2],"split_indices":[2,12,9,8,3,4,0,1,0,0,4,9,0,0,0,0,0,0,0,0,0,0,0],"split_type":[0,0,0,0,0,0,0,0,0,0,0,0,0,0,0,0,0,0,0,0,0,0,0],"sum_hessian":[2.6797241E1,1.16092205E1,1.5188021E1,6.1632104E0,5.44601E0,1.3705625E1,1.4823953E0,3.3617108E0,2.8014998E0,1.8258694E0,3.6201408E0,4.3120956E0,9.393529E0,1.6199082E0,1.7418025E0,1.7745988E0,1.0269009E0,1.0039691E0,2.6161718E0,2.9778702E0,1.3342255E0,8.16655E0,1.2269796E0],"tree_param":{"num_deleted":"0","num_feature":"13","num_nodes":"23","size_leaf_vector":"1"}},{"base_weights":[-4.200084E-3,2.1519335E-1,-2.9064378E-1,-1.7664177E-2,6.290171E-1,2.8808555E-2,-5.73216E-1,3.64897E-1,-2.0703915E-1,8.064129E-2,1.8666212E-2,-2.4501123E-1,5.184123E-2,-7.5706387E-1,-1.12168625E-1,7.633709E-2,-3.5883848E-2,4.984773E-4,-7.1308486E-2,4.083784E-2,-5.5116694E-2,-2.299997E-2,-8.6391866E-2,-4.8759397E-2,3.1577017E-2],"categories":[],"categories_nodes":[],"categories_segments":[],"categories_sizes":[],"default_left":[0,0,0,0,0,0,0,0,0,0,0,0,0,0,0,0,0,0,0,0,0,0,0,0,0],"id":32,"left_children":[1,3,5,7,9,11,13,15,17,-1,-1,19,-1,21,23,-1,-1,-1,-1,-1,-1,-1,-1,-1,-1],"loss_changes":[1.7798114E0,1.5575869E0,1.1247671E0,8.9003915E-1,3.050902E-1,1.0272177E0,4.713409E-1,1.4518614E0,8.7885475E-1,0E0,0E0,1.2223611E0,0E0,5.573654E-2,6.4314234E-1,0E0,0E0,0E0,0E0,0E0,0E0,0E0,0E0,0E0,0E0],"parents":[2147483647,0,0,1,1,2,2,3,3,4,4,5,5,6,6,7,7,8,8,11,11,13,13,14,14],"right_children":[2,4,6,8,10,12,14,16,18,-1,-1,20,-1,22,24,-1,-1,-1,-1,-1,-1,-1,-1,-1,-1],"split_conditions":[1E0,1.61E2,6E-1,1E0,3E0,2E0,2E0,1E0,2.71E2,8.064129E-2,1.8666212E-2,1.48E2,5.184123E-2,2.32E2,2.31E2,7.633709E-2,-3.5883848E-2,4.984773E-4,-7.1308486E-2,4.083784E-2,-5.5116694E-2,-2.299997E-2,-8.6391866E-2,-4.8759397E-2,3.1577017E-2],"split_indices":[11,7,9,1,12,2,10,8,4,0,0,7,0,4,4,0,0,0,0,0,0,0,0,0,0],"split_type":[0,0,0,0,0,0,0,0,0,0,0,0,0,0,0,0,0,0,0,0,0,0,0,0,0],"sum_hessian":[2.6325928E1,1.5048612E1,1.1277317E1,1.0242499E1,4.8061123E0,5.714751E0,5.562566E0,3.0845244E0,7.157975E0,2.8429976E0,1.9631147E0,3.9854102E0,1.7293407E0,3.5177653E0,2.0448008E0,1.953953E0,1.1305714E0,5.7422338E0,1.4157414E0,1.1650658E0,2.8203444E0,1.1243467E0,2.3934186E0,1.0149748E0,1.0298258E0],"tree_param":{"num_deleted":"0","num_feature":"13","num_nodes":"25","size_leaf_vector":"1"}},{"base_weights":[-4.4577816E-3,3.8315982E-1,-1.5404035E-1,-2.4639763E-2,7.412075E-2,8.685875E-2,-4.2336923E-1,2.457736E-1,-4.7423836E-2,3.7231523E-1,-3.001841E-1,-5.6963325E-1,3.403433E-2,6.62016E-2,-3.419255E-2,5.5109914E-2,-3.2252565E-2,-5.6514014E-2,3.883754E-2,-9.757542E-3,-6.5998815E-2],"categories":[],"categories_nodes":[],"categories_segments":[],"categories_sizes":[],"default_left":[0,0,0,0,0,0,0,0,0,0,0,0,0,0,0,0,0,0,0,0,0],"id":33,"left_children":[1,3,5,7,-1,9,11,13,-1,15,17,19,-1,-1,-1,-1,-1,-1,-1,-1,-1],"loss_changes":[1.6076801E0,1.1460658E0,1.3334715E0,6.7325425E-1,0E0,1.3690089E0,1.2669318E0,1.086929E0,0E0,1.0467782E0,1.20171E0,2.9543114E-1,0E0,0E0,0E0,0E0,0E0,0E0,0E0,0E0,0E0],"parents":[2147483647,0,0,1,1,2,2,3,3,5,5,6,6,7,7,9,9,10,10,11,11],"right_children":[2,4,6,8,-1,10,12,14,-1,16,18,20,-1,-1,-1,-1,-1,-1,-1,-1,-1],"split_conditions":[1E0,2E0,7E-1,1E0,7.412075E-2,1E0,1.48E2,1E0,-4.7423836E-2,2.67E2,3E0,1.12E2,3.403433E-2,6.62016E-2,-3.419255E-2,5.5109914E-2,-3.2252565E-2,-5.6514014E-2,3.883754E-2,-9.757542E-3,-6.5998815E-2],"split_indices":[1,10,9,11,0,11,3,8,0,4,11,3,0,0,0,0,0,0,0,0,0],"split_type":[0,0,0,0,0,0,0,0,0,0,0,0,0,0,0,0,0,0,0,0,0],"sum_hessian":[2.5709824E1,6.7240567E0,1.8985767E1,3.5789652E0,3.1450915E0,1.0379449E1,8.606318E0,2.5179064E0,1.0610588E0,5.9955735E0,4.3838754E0,7.436271E0,1.1700473E0,1.3999366E0,1.1179699E0,4.9331374E0,1.0624359E0,3.295152E0,1.0887235E0,1.5288303E0,5.9074407E0],"tree_param":{"num_deleted":"0","num_feature":"13","num_nodes":"21","size_leaf_vector":"1"}},{"base_weights":[-3.0385372E-3,-2.653255E-1,2.0001905E-1,3.2169886E-2,-5.583968E-1,4.2197883E-1,-5.3667545E-2,-4.9018048E-2,2.1277851E-1,-8.1515975E-2,-2.0559083E-1,-1.8056517E-2,6.4206266E-1,-5.3368926E-1,5.018539E-1,4.7336616E-2,-1.5242244E-2,2.5029955E-2,-4.9021687E-2,8.354709E-2,3.131109E-3,-8.153297E-2,2.8548897E-3,7.891739E-2,-1.421493E-2],"categories":[],"categories_nodes":[],"categories_segments":[],"categories_sizes":[],"default_left":[0,0,0,0,0,0,0,0,0,0,0,0,0,0,0,0,0,0,0,0,0,0,0,0,0],"id":34,"left_children":[1,3,5,7,9,11,13,-1,15,-1,17,-1,19,21,23,-1,-1,-1,-1,-1,-1,-1,-1,-1,-1],"loss_changes":[1.4460323E0,1.0504816E0,8.8482666E-1,7.479345E-1,3.7775564E-1,1.2138667E0,2.409773E0,0E0,6.209673E-1,0E0,6.252623E-1,0E0,7.1611595E-1,7.823453E-1,8.964989E-1,0E0,0E0,0E0,0E0,0E0,0E0,0E0,0E0,0E0,0E0],"parents":[2147483647,0,0,1,1,2,2,3,3,4,4,5,5,6,6,8,8,10,10,12,12,13,13,14,14],"right_children":[2,4,6,8,10,12,14,-1,16,-1,18,-1,20,22,24,-1,-1,-1,-1,-1,-1,-1,-1,-1,-1],"split_conditions":[1E0,3E0,5.7E1,1.26E2,1E0,1.2E2,6.1E1,-4.9018048E-2,1E0,-8.1515975E-2,2.12E2,-1.8056517E-2,3E0,3E0,2.81E2,4.7336616E-2,-1.5242244E-2,2.5029955E-2,-4.9021687E-2,8.354709E-2,3.131109E-3,-8.153297E-2,2.8548897E-3,7.891739E-2,-1.421493E-2],"split_indices":[2,12,0,7,6,3,0,0,8,0,4,0,12,12,4,0,0,0,0,0,0,0,0,0,0],"split_type":[0,0,0,0,0,0,0,0,0,0,0,0,0,0,0,0,0,0,0,0,0,0,0,0,0],"sum_hessian":[2.5154318E1,1.084252E1,1.4311799E1,5.8224297E0,5.02009E0,7.279398E0,7.032401E0,1.055551E0,4.7668786E0,2.1470323E0,2.8730576E0,1.995552E0,5.2838464E0,3.7936437E0,3.2387574E0,2.6090333E0,2.157845E0,1.1506476E0,1.7224101E0,3.7335837E0,1.5502623E0,2.2276187E0,1.5660249E0,2.0837014E0,1.155056E0],"tree_param":{"num_deleted":"0","num_feature":"13","num_nodes":"25","size_leaf_vector":"1"}},{"base_weights":[-5.214014E-3,1.950068E-1,-2.6557064E-1,-2.3455545E-2,5.89211E-1,-5.152288E-1,9.745657E-2,3.333496E-1,-1.9217347E-1,7.712584E-2,1.703419E-2,-5.2472786E-3,-6.6236895E-1,4.392678E-1,-2.594473E-1,7.127794E-2,-3.1788345E-2,5.909456E-3,-5.352018E-2,-8.224962E-2,-2.6434137E-2,-5.5031735E-4,6.467019E-2,6.756428E-4,-4.3136206E-2],"categories":[],"categories_nodes":[],"categories_segments":[],"categories_sizes":[],"default_left":[0,0,0,0,0,0,0,0,0,0,0,0,0,0,0,0,0,0,0,0,0,0,0,0,0],"id":35,"left_children":[1,3,5,7,9,11,13,15,17,-1,-1,-1,19,21,23,-1,-1,-1,-1,-1,-1,-1,-1,-1,-1],"loss_changes":[1.3889718E0,1.3122311E0,1.0992453E0,7.0594335E-1,2.8149045E-1,4.4304442E-1,7.919294E-1,1.1628032E0,7.102793E-1,0E0,0E0,0E0,1.16439104E-1,2.9971737E-1,1.5610304E-1,0E0,0E0,0E0,0E0,0E0,0E0,0E0,0E0,0E0,0E0],"parents":[2147483647,0,0,1,1,2,2,3,3,4,4,5,5,6,6,7,7,8,8,12,12,13,13,14,14],"right_children":[2,4,6,8,10,12,14,16,18,-1,-1,-1,20,22,24,-1,-1,-1,-1,-1,-1,-1,-1,-1,-1],"split_conditions":[1E0,1.61E2,1E0,1E0,3E0,1E0,5E-1,1E0,1.52E2,7.712584E-2,1.703419E-2,-5.2472786E-3,2E0,2E0,1.32E2,7.127794E-2,-3.1788345E-2,5.909456E-3,-5.352018E-2,-8.224962E-2,-2.6434137E-2,-5.5031735E-4,6.467019E-2,6.756428E-4,-4.3136206E-2],"split_indices":[11,7,6,1,12,1,9,8,7,0,0,0,2,11,3,0,0,0,0,0,0,0,0,0,0],"split_type":[0,0,0,0,0,0,0,0,0,0,0,0,0,0,0,0,0,0,0,0,0,0,0,0,0],"sum_hessian":[2.465153E1,1.4076979E1,1.0574551E1,9.662601E0,4.414377E0,6.0171957E0,4.5573545E0,2.7888832E0,6.8737183E0,2.4906237E0,1.9237536E0,1.7789654E0,4.2382307E0,2.2100186E0,2.3473356E0,1.7024641E0,1.0864191E0,4.44528E0,2.4284382E0,2.2618532E0,1.9763772E0,1.0125098E0,1.1975088E0,1.2980504E0,1.0492853E0],"tree_param":{"num_deleted":"0","num_feature":"13","num_nodes":"25","size_leaf_vector":"1"}},{"base_weights":[-4.8093623E-3,9.7076625E-2,-4.9904755E-1,4.642473E-1,-5.7820886E-2,-1.1340219E-2,-7.152119E-2,6.08816E-1,-6.658574E-3,1.1714526E-1,-4.7744712E-1,7.73631E-2,2.0364748E-2,-2.4884857E-2,3.278518E-2,-7.1335904E-2,-1.8163545E-2],"categories":[],"categories_nodes":[],"categories_segments":[],"categories_sizes":[],"default_left":[0,0,0,0,0,0,0,0,0,0,0,0,0,0,0,0,0],"id":36,"left_children":[1,3,5,7,9,-1,-1,11,-1,13,15,-1,-1,-1,-1,-1,-1],"loss_changes":[1.3184599E0,1.263696E0,2.9181063E-1,5.4420877E-1,1.2441763E0,0E0,0E0,1.9349825E-1,0E0,1.024324E0,2.1652305E-1,0E0,0E0,0E0,0E0,0E0,0E0],"parents":[2147483647,0,0,1,1,2,2,3,3,4,4,7,7,9,9,10,10],"right_children":[2,4,6,8,10,-1,-1,12,-1,14,16,-1,-1,-1,-1,-1,-1],"split_conditions":[2E0,1E0,1E0,1E0,2.64E2,-1.1340219E-2,-7.152119E-2,1E0,-6.658574E-3,5.1E1,1.48E2,7.73631E-2,2.0364748E-2,-2.4884857E-2,3.278518E-2,-7.1335904E-2,-1.8163545E-2],"split_indices":[9,1,11,8,4,0,0,11,0,0,7,0,0,0,0,0,0],"split_type":[0,0,0,0,0,0,0,0,0,0,0,0,0,0,0,0,0],"sum_hessian":[2.4220736E1,2.0747313E1,3.4734242E0,5.563176E0,1.5184136E1,1.795247E0,1.6781771E0,4.256925E0,1.306251E0,1.1224736E1,3.9593997E0,2.3795593E0,1.8773658E0,4.0349956E0,7.189741E0,1.4174455E0,2.5419543E0],"tree_param":{"num_deleted":"0","num_feature":"13","num_nodes":"17","size_leaf_vector":"1"}},{"base_weights":[-7.2947373E-3,-2.3029318E-1,2.0865096E-1,-3.509454E-1,4.1511506E-2,6.7500554E-2,2.0273328E-2,1.1762647E-2,-4.6739244E-1,-2.9611E-1,2.5429007E-1,-2.5499824E-2,-7.925784E-2,-6.708771E-2,6.03037E-3,4.7421854E-2,-2.792311E-2],"categories":[],"categories_nodes":[],"categories_segments":[],"categories_sizes":[],"default_left":[0,0,0,0,0,0,0,0,0,0,0,0,0,0,0,0,0],"id":37,"left_children":[1,3,5,7,-1,-1,9,-1,11,13,15,-1,-1,-1,-1,-1,-1],"loss_changes":[1.2468599E0,1.1363914E0,1.1434773E0,6.6940546E-1,0E0,0E0,8.4627247E-1,0E0,4.3472147E-1,6.935441E-1,8.9788294E-1,0E0,0E0,0E0,0E0,0E0,0E0],"parents":[2147483647,0,0,1,1,2,2,3,3,6,6,8,8,9,9,10,10],"right_children":[2,4,6,8,-1,-1,10,-1,12,14,16,-1,-1,-1,-1,-1,-1],"split_conditions":[2E0,3E0,1E0,4.7E1,4.1511506E-2,6.7500554E-2,1E0,1.1762647E-2,1.9E0,1.28E2,5.8E1,-2.5499824E-2,-7.925784E-2,-6.708771E-2,6.03037E-3,4.7421854E-2,-2.792311E-2],"split_indices":[10,2,1,0,0,0,6,0,9,3,0,0,0,0,0,0,0],"split_type":[0,0,0,0,0,0,0,0,0,0,0,0,0,0,0,0,0],"sum_hessian":[2.3894514E1,1.1722608E1,1.2171906E1,1.0260718E1,1.4618896E0,2.7588181E0,9.413088E0,2.0403626E0,8.220355E0,3.889402E0,5.5236864E0,6.051801E0,2.1685543E0,1.4658108E0,2.4235911E0,3.9900563E0,1.53363E0],"tree_param":{"num_deleted":"0","num_feature":"13","num_nodes":"17","size_leaf_vector":"1"}},{"base_weights":[-7.6919645E-3,1.759201E-1,-2.4780114E-1,-2.7117223E-2,5.511229E-1,-4.8420987E-1,9.2311025E-2,2.2881657E-1,-2.7019972E-1,7.423192E-2,1.460584E-2,-2.0794569E-1,-7.9735674E-2,-3.1537093E-2,3.8547665E-1,-1.8255102E-2,6.029597E-2,1.9831197E-2,-6.782658E-2,-4.8420098E-2,2.3312649E-2,6.173424E-2,3.4296904E-3],"categories":[],"categories_nodes":[],"categories_segments":[],"categories_sizes":[],"default_left":[0,0,0,0,0,0,0,0,0,0,0,0,0,0,0,0,0,0,0,0,0,0,0],"id":38,"left_children":[1,3,5,7,9,11,13,15,17,-1,-1,19,-1,-1,21,-1,-1,-1,-1,-1,-1,-1,-1],"loss_changes":[1.1247404E0,1.1181293E0,9.3252045E-1,7.057035E-1,2.8901172E-1,4.1157925E-1,7.6310664E-1,9.693489E-1,1.2369845E0,0E0,0E0,7.097767E-1,0E0,0E0,2.697127E-1,0E0,0E0,0E0,0E0,0E0,0E0,0E0,0E0],"parents":[2147483647,0,0,1,1,2,2,3,3,4,4,5,5,6,6,7,7,8,8,11,11,14,14],"right_children":[2,4,6,8,10,12,14,16,18,-1,-1,20,-1,-1,22,-1,-1,-1,-1,-1,-1,-1,-1],"split_conditions":[1E0,1.61E2,1E0,2.37E2,3E0,3E0,1E0,2.01E2,1E0,7.423192E-2,1.460584E-2,2E0,-7.9735674E-2,-3.1537093E-2,5E-1,-1.8255102E-2,6.029597E-2,1.9831197E-2,-6.782658E-2,-4.8420098E-2,2.3312649E-2,6.173424E-2,3.4296904E-3],"split_indices":[11,7,6,4,12,12,2,4,6,0,0,2,0,0,9,0,0,0,0,0,0,0,0],"split_type":[0,0,0,0,0,0,0,0,0,0,0,0,0,0,0,0,0,0,0,0,0,0,0],"sum_hessian":[2.352307E1,1.3481254E1,1.0041815E1,9.349558E0,4.1316957E0,5.6741147E0,4.3677E0,4.582977E0,4.7665815E0,2.2412148E0,1.8904809E0,3.8986776E0,1.7754369E0,1.7953323E0,2.572368E0,2.426805E0,2.1561716E0,2.458235E0,2.3083467E0,2.3371048E0,1.5615728E0,1.0928835E0,1.4794843E0],"tree_param":{"num_deleted":"0","num_feature":"13","num_nodes":"23","size_leaf_vector":"1"}},{"base_weights":[-6.4680236E-3,1.5788338E-1,-2.6928994E-1,3.6282516E-1,-1.007659E-1,-5.3869116E-1,1.7191166E-1,6.02922E-1,6.61319E-3,3.0431857E-2,-2.7957147E-1,-1.8350235E-1,-8.293694E-2,4.789483E-2,-3.182011E-2,-6.112569E-3,7.953405E-2,-2.4789376E-2,2.9492987E-2,-5.15857E-2,3.1457834E-2,1.7694531E-2,-4.3468114E-2],"categories":[],"categories_nodes":[],"categories_segments":[],"categories_sizes":[],"default_left":[0,0,0,0,0,0,0,0,0,0,0,0,0,0,0,0,0,0,0,0,0,0,0],"id":39,"left_children":[1,3,5,7,9,11,13,15,17,-1,19,21,-1,-1,-1,-1,-1,-1,-1,-1,-1,-1,-1],"loss_changes":[1.0829388E0,8.555268E-1,1.2380285E0,7.5181985E-1,6.364716E-1,4.90533E-1,8.1625724E-1,7.217256E-1,4.083999E-1,0E0,9.768973E-1,4.4683212E-1,0E0,0E0,0E0,0E0,0E0,0E0,0E0,0E0,0E0,0E0,0E0],"parents":[2147483647,0,0,1,1,2,2,3,3,4,4,5,5,6,6,7,7,8,8,10,10,11,11],"right_children":[2,4,6,8,10,12,14,16,18,-1,20,22,-1,-1,-1,-1,-1,-1,-1,-1,-1,-1,-1],"split_conditions":[9E-1,1E0,2E0,2.41E2,1E0,3E0,2E0,4.3E1,1.53E2,3.0431857E-2,1E0,2.29E2,-8.293694E-2,4.789483E-2,-3.182011E-2,-6.112569E-3,7.953405E-2,-2.4789376E-2,2.9492987E-2,-5.15857E-2,3.1457834E-2,1.7694531E-2,-4.3468114E-2],"split_indices":[9,11,2,4,1,12,9,0,7,0,5,4,0,0,0,0,0,0,0,0,0,0,0],"split_type":[0,0,0,0,0,0,0,0,0,0,0,0,0,0,0,0,0,0,0,0,0,0,0],"sum_hessian":[2.3086557E1,1.4449853E1,8.636704E0,7.837227E0,6.612626E0,5.2251945E0,3.4115095E0,4.267929E0,3.5692978E0,1.8100349E0,4.8025913E0,3.0858223E0,2.1393723E0,2.1115098E0,1.2999998E0,1.1121527E0,3.1557765E0,1.9702735E0,1.5990243E0,3.5303788E0,1.2722123E0,1.3886361E0,1.6971862E0],"tree_param":{"num_deleted":"0","num_feature":"13","num_nodes":"23","size_leaf_vector":"1"}},{"base_weights":[-6.0987636E-3,-2.1070838E-1,1.9373108E-1,-3.2053328E-1,3.682311E-2,6.40937E-2,1.3371371E-2,1.2731269E-2,-4.269142E-1,-2.7914852E-1,2.300163E-1,2.1023586E-4,-6.2423676E-2,-6.349117E-2,5.9363814E-3,4.6378225E-2,-2.20773E-2],"categories":[],"categories_nodes":[],"categories_segments":[],"categories_sizes":[],"default_left":[0,0,0,0,0,0,0,0,0,0,0,0,0,0,0,0,0],"id":40,"left_children":[1,3,5,7,-1,-1,9,-1,11,13,15,-1,-1,-1,-1,-1,-1],"loss_changes":[1.0088979E0,8.923007E-1,9.995986E-1,5.6747854E-1,0E0,0E0,6.933989E-1,0E0,7.5751555E-1,6.008445E-1,7.612411E-1,0E0,0E0,0E0,0E0,0E0,0E0],"parents":[2147483647,0,0,1,1,2,2,3,3,6,6,8,8,9,9,10,10],"right_children":[2,4,6,8,-1,-1,10,-1,12,14,16,-1,-1,-1,-1,-1,-1],"split_conditions":[2E0,3E0,1E0,1.17E2,3.682311E-2,6.40937E-2,1E0,1.2731269E-2,6E-1,1.28E2,1.34E2,2.1023586E-4,-6.2423676E-2,-6.349117E-2,5.9363814E-3,4.6378225E-2,-2.20773E-2],"split_indices":[10,2,1,3,0,0,6,0,9,3,3,0,0,0,0,0,0],"split_type":[0,0,0,0,0,0,0,0,0,0,0,0,0,0,0,0,0],"sum_hessian":[2.2676832E1,1.1177518E1,1.1499314E1,9.770413E0,1.4071045E0,2.570943E0,8.92837E0,1.8376117E0,7.9328017E0,3.6761823E0,5.252188E0,2.8108432E0,5.1219583E0,1.3655007E0,2.3106816E0,3.43966E0,1.8125281E0],"tree_param":{"num_deleted":"0","num_feature":"13","num_nodes":"17","size_leaf_vector":"1"}},{"base_weights":[-4.7770375E-3,3.2004994E-1,-1.22159466E-1,4.8390034E-1,-2.4567066E-2,-9.629246E-3,-5.4759806E-1,7.0621476E-2,-1.1123384E-2,-3.0625919E-1,1.6953354E-1,-6.300531E-2,-1.6427932E-2,-5.533669E-2,2.7849117E-2,5.2413642E-2,-4.7846508E-4],"categories":[],"categories_nodes":[],"categories_segments":[],"categories_sizes":[],"default_left":[0,0,0,0,0,0,0,0,0,0,0,0,0,0,0,0,0],"id":41,"left_children":[1,3,5,7,-1,9,11,-1,-1,13,15,-1,-1,-1,-1,-1,-1],"loss_changes":[9.2947054E-1,7.190547E-1,8.5057306E-1,7.873776E-1,0E0,8.573499E-1,1.4119148E-2,0E0,0E0,1.0302093E0,6.2634146E-1,0E0,0E0,0E0,0E0,0E0,0E0],"parents":[2147483647,0,0,1,1,2,2,3,3,5,5,6,6,9,9,10,10],"right_children":[2,4,6,8,-1,10,12,-1,-1,14,16,-1,-1,-1,-1,-1,-1],"split_conditions":[1E0,2E0,2.78E2,1E0,-2.4567066E-2,5.1E1,1.61E2,7.0621476E-2,-1.1123384E-2,1.69E2,5.6E1,-6.300531E-2,-1.6427932E-2,-5.533669E-2,2.7849117E-2,5.2413642E-2,-4.7846508E-4],"split_indices":[1,11,4,8,0,0,7,0,0,7,0,0,0,0,0,0,0],"split_type":[0,0,0,0,0,0,0,0,0,0,0,0,0,0,0,0,0],"sum_hessian":[2.2351618E1,5.4748263E0,1.6876791E1,4.3574133E0,1.117413E0,1.41552925E1,2.7214985E0,3.0364785E0,1.3209345E0,5.0631404E0,9.092153E0,1.7099867E0,1.0115118E0,3.5968351E0,1.466305E0,2.3351486E0,6.757004E0],"tree_param":{"num_deleted":"0","num_feature":"13","num_nodes":"17","size_leaf_vector":"1"}},{"base_weights":[-5.0499104E-3,1.6261254E-1,-2.258E-1,-2.0187814E-2,5.0768834E-1,-4.6296212E-1,1.0870675E-1,-1.3551559E-1,4.1885972E-2,7.047086E-2,1.2151632E-2,-2.0516078E-1,-7.515549E-2,-2.9085884E-2,3.8756004E-1,1.3569533E-2,-3.9685976E-2,-4.6461426E-2,2.0808319E-2,5.62541E-2,1.9430151E-3],"categories":[],"categories_nodes":[],"categories_segments":[],"categories_sizes":[],"default_left":[0,0,0,0,0,0,0,0,0,0,0,0,0,0,0,0,0,0,0,0,0],"id":42,"left_children":[1,3,5,7,9,11,13,15,-1,-1,-1,17,-1,-1,19,-1,-1,-1,-1,-1,-1],"loss_changes":[8.900926E-1,8.7353325E-1,8.7312E-1,5.584515E-1,2.7785408E-1,3.1147194E-1,6.823657E-1,6.6358757E-1,0E0,0E0,0E0,5.985963E-1,0E0,0E0,2.1064979E-1,0E0,0E0,0E0,0E0,0E0,0E0],"parents":[2147483647,0,0,1,1,2,2,3,3,4,4,5,5,6,6,7,7,11,11,14,14],"right_children":[2,4,6,8,10,12,14,16,-1,-1,-1,18,-1,-1,20,-1,-1,-1,-1,-1,-1],"split_conditions":[1E0,1.61E2,1E0,6.5E1,3E0,3E0,1E0,2.41E2,4.1885972E-2,7.047086E-2,1.2151632E-2,2E0,-7.515549E-2,-2.9085884E-2,1.61E2,1.3569533E-2,-3.9685976E-2,-4.6461426E-2,2.0808319E-2,5.62541E-2,1.9430151E-3],"split_indices":[11,7,6,0,12,12,2,4,0,0,0,2,0,0,7,0,0,0,0,0,0],"split_type":[0,0,0,0,0,0,0,0,0,0,0,0,0,0,0,0,0,0,0,0,0],"sum_hessian":[2.2057018E1,1.2685549E1,9.3714695E0,8.908081E0,3.777467E0,5.258926E0,4.1125436E0,7.6024365E0,1.3056448E0,1.9551275E0,1.8223394E0,3.6813014E0,1.5776246E0,1.6726992E0,2.4398441E0,3.9667287E0,3.635708E0,2.1850913E0,1.4962102E0,1.29581E0,1.1440343E0],"tree_param":{"num_deleted":"0","num_feature":"13","num_nodes":"21","size_leaf_vector":"1"}},{"base_weights":[-3.3908044E-3,3.1026918E-1,-1.15458295E-1,-2.9263668E-2,6.071366E-1,-4.4571808E-1,2.2589244E-2,3.707128E-2,-3.0213404E-2,7.216639E-2,1.9054115E-2,8.8527374E-2,-8.4032685E-2,4.9321723E-1,-1.3252334E-1,-1.3753575E-2,2.6112989E-2,8.047981E-3,6.848583E-2,-3.0674387E-2,2.2696137E-2],"categories":[],"categories_nodes":[],"categories_segments":[],"categories_sizes":[],"default_left":[0,0,0,0,0,0,0,0,0,0,0,0,0,0,0,0,0,0,0,0,0],"id":43,"left_children":[1,3,5,7,9,11,13,-1,-1,-1,-1,15,-1,17,19,-1,-1,-1,-1,-1,-1],"loss_changes":[8.343506E-1,6.4786166E-1,8.063627E-1,5.343897E-1,2.3811579E-2,1.1699728E0,1.0340056E0,0E0,0E0,0E0,0E0,1.5736048E-1,0E0,2.2180259E-1,7.440162E-1,0E0,0E0,0E0,0E0,0E0,0E0],"parents":[2147483647,0,0,1,1,2,2,3,3,4,4,5,5,6,6,11,11,13,13,14,14],"right_children":[2,4,6,8,10,12,14,-1,-1,-1,-1,16,-1,18,20,-1,-1,-1,-1,-1,-1],"split_conditions":[1E0,2E0,1.43E2,5.7E1,1.36E2,2.35E2,1.49E2,3.707128E-2,-3.0213404E-2,7.216639E-2,1.9054115E-2,2.01E2,-8.4032685E-2,1E0,1.69E2,-1.3753575E-2,2.6112989E-2,8.047981E-3,6.848583E-2,-3.0674387E-2,2.2696137E-2],"split_indices":[1,10,7,0,3,4,7,0,0,0,0,4,0,2,7,0,0,0,0,0,0],"split_type":[0,0,0,0,0,0,0,0,0,0,0,0,0,0,0,0,0,0,0,0,0],"sum_hessian":[2.1717003E1,5.251172E0,1.646583E1,2.870058E0,2.3811142E0,4.1968102E0,1.226902E1,1.0185251E0,1.8515329E0,1.2932847E0,1.0878296E0,2.1124732E0,2.084337E0,2.5009964E0,9.768024E0,1.0025568E0,1.1099163E0,1.2432846E0,1.2577116E0,6.678211E0,3.0898128E0],"tree_param":{"num_deleted":"0","num_feature":"13","num_nodes":"21","size_leaf_vector":"1"}},{"base_weights":[1.0917739E-3,1.636864E-1,-2.1462235E-1,-2.391794E-1,2.9116386E-1,-4.4450724E-1,1.0692054E-1,2.0028487E-2,-5.760014E-2,-2.8167684E-2,3.9537215E-1,-1.9376475E-1,-7.2790764E-2,-2.6992215E-2,3.639327E-1,7.2454266E-2,3.3615136E-3,-4.4447202E-2,1.989207E-2,5.259064E-2,2.0375096E-3],"categories":[],"categories_nodes":[],"categories_segments":[],"categories_sizes":[],"default_left":[0,0,0,0,0,0,0,0,0,0,0,0,0,0,0,0,0,0,0,0,0],"id":44,"left_children":[1,3,5,7,9,11,13,-1,-1,-1,15,17,-1,-1,19,-1,-1,-1,-1,-1,-1],"loss_changes":[8.233227E-1,7.5684774E-1,7.9344094E-1,6.727254E-1,7.450719E-1,2.908721E-1,5.8375764E-1,0E0,0E0,0E0,1.0947393E0,5.4006296E-1,0E0,0E0,1.7883006E-1,0E0,0E0,0E0,0E0,0E0,0E0],"parents":[2147483647,0,0,1,1,2,2,3,3,4,4,5,5,6,6,10,10,11,11,14,14],"right_children":[2,4,6,8,10,12,14,-1,-1,-1,16,18,-1,-1,20,-1,-1,-1,-1,-1,-1],"split_conditions":[1E0,1.38E2,1E0,2.17E2,1.86E2,3E0,1E0,2.0028487E-2,-5.760014E-2,-2.8167684E-2,1E0,2E0,-7.2790764E-2,-2.6992215E-2,1.61E2,7.2454266E-2,3.3615136E-3,-4.4447202E-2,1.989207E-2,5.259064E-2,2.0375096E-3],"split_indices":[11,7,6,4,4,12,2,0,0,0,6,2,0,0,7,0,0,0,0,0,0],"split_type":[0,0,0,0,0,0,0,0,0,0,0,0,0,0,0,0,0,0,0,0,0],"sum_hessian":[2.1472286E1,1.23811655E1,9.091121E0,2.7654123E0,9.615753E0,5.078128E0,4.012993E0,1.3757668E0,1.3896456E0,1.217892E0,8.3978615E0,3.5876327E0,1.4904953E0,1.6068E0,2.4061928E0,3.871896E0,4.525965E0,2.1091697E0,1.4784628E0,1.2745345E0,1.1316583E0],"tree_param":{"num_deleted":"0","num_feature":"13","num_nodes":"21","size_leaf_vector":"1"}},{"base_weights":[-1.6546802E-3,-1.9272447E-1,1.837398E-1,-2.9628995E-1,3.3745416E-2,5.9388196E-1,2.0925546E-2,1.3015995E-2,-4.0010598E-1,7.066315E-2,1.8489439E-2,-1.0396878E-1,5.20364E-2,-1.3074109E-2,-7.1023785E-2,1.3042274E-2,-4.113161E-2],"categories":[],"categories_nodes":[],"categories_segments":[],"categories_sizes":[],"default_left":[0,0,0,0,0,0,0,0,0,0,0,0,0,0,0,0,0],"id":45,"left_children":[1,3,5,7,-1,9,11,-1,13,-1,-1,15,-1,-1,-1,-1,-1],"loss_changes":[8.200926E-1,7.2576666E-1,7.725156E-1,4.9776292E-1,0E0,2.1694183E-2,6.4362323E-1,0E0,6.0397625E-1,0E0,0E0,6.583312E-1,0E0,0E0,0E0,0E0,0E0],"parents":[2147483647,0,0,1,1,2,2,3,3,5,5,6,6,8,8,11,11],"right_children":[2,4,6,8,-1,10,12,-1,14,-1,-1,16,-1,-1,-1,-1,-1],"split_conditions":[2E0,3E0,1E0,1.17E2,3.3745416E-2,1.36E2,1E0,1.3015995E-2,1E0,7.066315E-2,1.8489439E-2,1E0,5.20364E-2,-1.3074109E-2,-7.1023785E-2,1.3042274E-2,-4.113161E-2],"split_indices":[10,2,1,3,0,3,5,0,8,0,0,11,0,0,0,0,0],"split_type":[0,0,0,0,0,0,0,0,0,0,0,0,0,0,0,0,0],"sum_hessian":[2.1151575E1,1.0396884E1,1.0754691E1,9.066899E0,1.3299842E0,2.3037515E0,8.45094E0,1.7254468E0,7.3414526E0,1.235415E0,1.0683365E0,7.3938036E0,1.057136E0,4.689744E0,2.6517086E0,4.521349E0,2.872455E0],"tree_param":{"num_deleted":"0","num_feature":"13","num_nodes":"17","size_leaf_vector":"1"}},{"base_weights":[1.8905817E-3,1.4467144E-1,-2.3233238E-1,3.198268E-1,-7.764852E-2,-4.7713417E-1,1.4775538E-1,5.516959E-1,-2.402608E-2,1.4976192E-1,-3.4560716E-1,-1.3132995E-1,-7.779901E-2,4.33819E-2,-2.9450377E-2,-6.5357024E-3,7.4214436E-2,-2.4787674E-2,2.474547E-2,-1.2366588E-2,5.2932937E-2,-6.0189623E-2,1.3060907E-2,1.700483E-2,-3.5743862E-2],"categories":[],"categories_nodes":[],"categories_segments":[],"categories_sizes":[],"default_left":[0,0,0,0,0,0,0,0,0,0,0,0,0,0,0,0,0,0,0,0,0,0,0,0,0],"id":46,"left_children":[1,3,5,7,9,11,13,15,17,19,21,23,-1,-1,-1,-1,-1,-1,-1,-1,-1,-1,-1,-1,-1],"loss_changes":[7.659658E-1,5.786257E-1,8.7789714E-1,6.630336E-1,4.8267907E-1,4.715352E-1,6.5443206E-1,6.2542593E-1,3.190432E-1,5.348667E-1,5.117297E-1,3.1759474E-1,0E0,0E0,0E0,0E0,0E0,0E0,0E0,0E0,0E0,0E0,0E0,0E0,0E0],"parents":[2147483647,0,0,1,1,2,2,3,3,4,4,5,5,6,6,7,7,8,8,9,9,10,10,11,11],"right_children":[2,4,6,8,10,12,14,16,18,20,22,24,-1,-1,-1,-1,-1,-1,-1,-1,-1,-1,-1,-1,-1],"split_conditions":[9E-1,1E0,2E0,2.41E2,1.61E2,3E0,2E0,4.3E1,1.53E2,1E0,2E0,2.29E2,-7.779901E-2,4.33819E-2,-2.9450377E-2,-6.5357024E-3,7.4214436E-2,-2.4787674E-2,2.474547E-2,-1.2366588E-2,5.2932937E-2,-6.0189623E-2,1.3060907E-2,1.700483E-2,-3.5743862E-2],"split_indices":[9,11,2,4,7,12,9,0,7,6,11,4,0,0,0,0,0,0,0,0,0,0,0,0,0],"split_type":[0,0,0,0,0,0,0,0,0,0,0,0,0,0,0,0,0,0,0,0,0,0,0,0,0],"sum_hessian":[2.0898863E1,1.3221471E1,7.677392E0,7.1498528E0,6.071618E0,4.514456E0,3.1629362E0,3.9092734E0,3.2405796E0,3.522907E0,2.5487108E0,2.768667E0,1.7457889E0,1.9322171E0,1.230719E0,1.0769101E0,2.8323631E0,1.8237468E0,1.4168328E0,2.4396539E0,1.083253E0,1.485392E0,1.0633188E0,1.2930747E0,1.4755923E0],"tree_param":{"num_deleted":"0","num_feature":"13","num_nodes":"25","size_leaf_vector":"1"}},{"base_weights":[7.633299E-4,3.066973E-1,-1.08303435E-1,4.606114E-1,-2.196495E-2,9.5162615E-2,-2.9403964E-1,6.688197E-2,-8.829246E-3,4.2311427E-1,-1.18552044E-1,-4.32959E-1,3.826367E-2,8.602153E-3,6.183402E-2,1.6616251E-2,-4.382625E-2,5.508706E-3,-5.8075327E-2],"categories":[],"categories_nodes":[],"categories_segments":[],"categories_sizes":[],"default_left":[0,0,0,0,0,0,0,0,0,0,0,0,0,0,0,0,0,0,0],"id":47,"left_children":[1,3,5,7,-1,9,11,-1,-1,13,15,17,-1,-1,-1,-1,-1,-1,-1],"loss_changes":[7.5279427E-1,5.8146185E-1,6.5670353E-1,6.2020874E-1,0E0,6.595741E-1,1.0062306E0,0E0,0E0,1.8697792E-1,6.2312114E-1,6.009531E-1,0E0,0E0,0E0,0E0,0E0,0E0,0E0],"parents":[2147483647,0,0,1,1,2,2,3,3,5,5,6,6,9,9,10,10,11,11],"right_children":[2,4,6,8,-1,10,12,-1,-1,14,16,18,-1,-1,-1,-1,-1,-1,-1],"split_conditions":[1E0,2E0,6E-1,1E0,-2.196495E-2,2.23E2,1.48E2,6.688197E-2,-8.829246E-3,1E0,3E0,1.12E2,3.826367E-2,8.602153E-3,6.183402E-2,1.6616251E-2,-4.382625E-2,5.508706E-3,-5.8075327E-2],"split_indices":[1,11,9,8,0,4,3,0,0,2,12,3,0,0,0,0,0,0,0],"split_type":[0,0,0,0,0,0,0,0,0,0,0,0,0,0,0,0,0,0,0],"sum_hessian":[2.0565409E1,4.9285984E0,1.563681E1,3.9100988E0,1.0184994E0,7.694959E0,7.941851E0,2.6764235E0,1.2336752E0,2.649465E0,5.045494E0,6.8879476E0,1.0539036E0,1.5000257E0,1.1494395E0,2.9228523E0,2.1226418E0,1.7468326E0,5.1411147E0],"tree_param":{"num_deleted":"0","num_feature":"13","num_nodes":"19","size_leaf_vector":"1"}},{"base_weights":[3.8895227E-3,-1.6874407E-1,1.7066252E-1,-3.596939E-1,1.1978346E-1,5.6127006E-1,1.6516415E-2,-1.2414154E-1,-6.428731E-2,3.498287E-2,-1.6295439E-2,6.729408E-2,1.6602669E-2,-2.647272E-1,2.1448112E-1,2.5136972E-2,-2.8993754E-2,-5.8720797E-2,5.917009E-3,4.3722242E-2,-2.1213954E-2],"categories":[],"categories_nodes":[],"categories_segments":[],"categories_sizes":[],"default_left":[0,0,0,0,0,0,0,0,0,0,0,0,0,0,0,0,0,0,0,0,0],"id":48,"left_children":[1,3,5,7,9,11,13,15,-1,-1,-1,-1,-1,17,19,-1,-1,-1,-1,-1,-1],"loss_changes":[6.4063466E-1,6.4609075E-1,6.714872E-1,3.761782E-1,3.893061E-1,2.8142571E-2,5.6551063E-1,3.8237602E-1,0E0,0E0,0E0,0E0,0E0,4.7576368E-1,6.548352E-1,0E0,0E0,0E0,0E0,0E0,0E0],"parents":[2147483647,0,0,1,1,2,2,3,3,4,4,5,5,6,6,7,7,13,13,14,14],"right_children":[2,4,6,8,10,12,14,16,-1,-1,-1,-1,-1,18,20,-1,-1,-1,-1,-1,-1],"split_conditions":[2E0,2E0,1E0,3E0,1E0,1.36E2,1E0,5E1,-6.428731E-2,3.498287E-2,-1.6295439E-2,6.729408E-2,1.6602669E-2,1.28E2,1.34E2,2.5136972E-2,-2.8993754E-2,-5.8720797E-2,5.917009E-3,4.3722242E-2,-2.1213954E-2],"split_indices":[10,2,1,12,11,3,6,0,0,0,0,0,0,3,3,0,0,0,0,0,0],"split_type":[0,0,0,0,0,0,0,0,0,0,0,0,0,0,0,0,0,0,0,0,0],"sum_hessian":[2.0251236E1,9.94497E0,1.0306267E1,5.836003E0,4.1089673E0,2.1689568E0,8.13731E0,3.9711394E0,1.8648638E0,2.1347616E0,1.9742056E0,1.1433264E0,1.0256302E0,3.2222679E0,4.915042E0,1.0582258E0,2.9129136E0,1.2073015E0,2.0149662E0,3.2127795E0,1.7022628E0],"tree_param":{"num_deleted":"0","num_feature":"13","num_nodes":"21","size_leaf_vector":"1"}},{"base_weights":[3.7406334E-3,7.874425E-2,-3.733302E-1,3.6598158E-1,-3.6470827E-2,-6.215271E-3,-5.747511E-2,-8.006256E-3,6.2213697E-2,2.811748E-1,-2.0634416E-1,5.0078847E-2,-1.7326526E-2,-3.271065E-2,2.6409999E-2],"categories":[],"categories_nodes":[],"categories_segments":[],"categories_sizes":[],"default_left":[0,0,0,0,0,0,0,0,0,0,0,0,0,0,0],"id":49,"left_children":[1,3,5,7,9,-1,-1,-1,-1,11,13,-1,-1,-1,-1],"loss_changes":[6.2273455E-1,6.197851E-1,1.9335812E-1,6.5955734E-1,8.128048E-1,0E0,0E0,0E0,0E0,6.154462E-1,6.3693666E-1,0E0,0E0,0E0,0E0],"parents":[2147483647,0,0,1,1,2,2,3,3,4,4,9,9,10,10],"right_children":[2,4,6,8,10,-1,-1,-1,-1,12,14,-1,-1,-1,-1],"split_conditions":[2E0,1E0,1E0,1E-1,2.23E2,-6.215271E-3,-5.747511E-2,-8.006256E-3,6.2213697E-2,1E0,2E0,5.0078847E-2,-1.7326526E-2,-3.271065E-2,2.6409999E-2],"split_indices":[9,1,11,9,4,0,0,0,0,11,11,0,0,0,0],"split_type":[0,0,0,0,0,0,0,0,0,0,0,0,0,0,0],"sum_hessian":[1.9979553E1,1.7324654E1,2.6548994E0,4.3366494E0,1.2988005E1,1.5574096E0,1.0974896E0,1.8327396E0,2.5039096E0,4.297298E0,8.690707E0,2.828433E0,1.4688646E0,7.157956E0,1.532751E0],"tree_param":{"num_deleted":"0","num_feature":"13","num_nodes":"15","size_leaf_vector":"1"}},{"base_weights":[4.3338686E-3,-2.7202266E-1,1.0254038E-1,8.7769724E-2,-5.9300926E-2,-3.5606273E-2,1.6622156E-1,-1.1263869E-2,2.7351761E-2,3.936402E-1,-1.05423756E-1,6.844338E-2,5.5025606E-3,-4.165565E-2,2.9738287E-2],"categories":[],"categories_nodes":[],"categories_segments":[],"categories_sizes":[],"default_left":[0,0,0,0,0,0,0,0,0,0,0,0,0,0,0],"id":50,"left_children":[1,3,5,7,-1,-1,9,-1,-1,11,13,-1,-1,-1,-1],"loss_changes":[5.9226257E-1,7.133264E-1,5.2846515E-1,1.6373476E-1,0E0,0E0,9.552649E-1,0E0,0E0,7.759018E-1,1.0674605E0,0E0,0E0,0E0,0E0],"parents":[2147483647,0,0,1,1,2,2,3,3,6,6,9,9,10,10],"right_children":[2,4,6,8,-1,-1,10,-1,-1,12,14,-1,-1,-1,-1],"split_conditions":[1.42E2,2.35E2,1.86E2,2.01E2,-5.9300926E-2,-3.5606273E-2,1E0,-1.1263869E-2,2.7351761E-2,1E0,1E0,6.844338E-2,5.5025606E-3,-4.165565E-2,2.9738287E-2],"split_indices":[7,4,4,4,0,0,11,0,0,6,6,0,0,0,0],"split_type":[0,0,0,0,0,0,0,0,0,0,0,0,0,0,0],"sum_hessian":[1.9794735E1,4.7259216E0,1.5068812E1,2.5708406E0,2.155081E0,1.2775003E0,1.3791312E1,1.4259443E0,1.1448963E0,7.2622967E0,6.529015E0,3.357599E0,3.904698E0,3.66443E0,2.8645854E0],"tree_param":{"num_deleted":"0","num_feature":"13","num_nodes":"15","size_leaf_vector":"1"}},{"base_weights":[3.2052577E-3,-1.8888758E-1,1.4399555E-1,7.249708E-2,-4.5626998E-1,3.486763E-1,-8.079143E-2,3.2744142E-1,-2.2365195E-1,-7.222979E-3,-6.0700722E-2,-2.626471E-2,5.9633833E-1,-4.9701545E-1,4.39918E-1,9.902187E-4,4.875792E-2,-3.1655636E-3,-3.072817E-2,7.6157354E-2,5.8588684E-3,-7.806858E-2,6.784038E-3,6.900221E-2,5.579189E-3],"categories":[],"categories_nodes":[],"categories_segments":[],"categories_sizes":[],"default_left":[0,0,0,0,0,0,0,0,0,0,0,0,0,0,0,0,0,0,0,0,0,0,0,0,0],"id":51,"left_children":[1,3,5,7,9,11,13,15,17,-1,-1,-1,19,21,23,-1,-1,-1,-1,-1,-1,-1,-1,-1,-1],"loss_changes":[5.834251E-1,6.712513E-1,6.003305E-1,4.8700064E-1,2.253924E-1,1.170572E0,1.67912E0,1.6556203E-1,4.052064E-2,0E0,0E0,0E0,4.0604782E-1,7.282765E-1,3.0006236E-1,0E0,0E0,0E0,0E0,0E0,0E0,0E0,0E0,0E0,0E0],"parents":[2147483647,0,0,1,1,2,2,3,3,4,4,5,5,6,6,7,7,8,8,12,12,13,13,14,14],"right_children":[2,4,6,8,10,12,14,16,18,-1,-1,-1,20,22,24,-1,-1,-1,-1,-1,-1,-1,-1,-1,-1],"split_conditions":[1E0,3E0,5.7E1,1E0,1.22E2,1.2E2,6.1E1,1.22E2,5.3E1,-7.222979E-3,-6.0700722E-2,-2.626471E-2,3E0,3E0,2.53E2,9.902187E-4,4.875792E-2,-3.1655636E-3,-3.072817E-2,7.6157354E-2,5.8588684E-3,-7.806858E-2,6.784038E-3,6.900221E-2,5.579189E-3],"split_indices":[2,12,0,8,3,3,0,3,0,0,0,0,12,12,4,0,0,0,0,0,0,0,0,0,0],"split_type":[0,0,0,0,0,0,0,0,0,0,0,0,0,0,0,0,0,0,0,0,0,0,0,0,0],"sum_hessian":[1.9566837E1,8.131152E0,1.1435684E1,4.480257E0,3.650895E0,5.6970606E0,5.738624E0,2.3508382E0,2.1294188E0,1.4460087E0,2.2048864E0,1.625127E0,4.0719337E0,3.2145822E0,2.524042E0,1.1440741E0,1.2067641E0,1.0643703E0,1.0650486E0,2.7964427E0,1.2754908E0,1.8855586E0,1.3290237E0,1.0463935E0,1.4776483E0],"tree_param":{"num_deleted":"0","num_feature":"13","num_nodes":"25","size_leaf_vector":"1"}},{"base_weights":[3.4659111E-3,1.305307E-1,-2.0972587E-1,-5.7058774E-2,3.216604E-1,-4.4094416E-1,1.427587E-1,-4.1703448E-1,2.6208442E-1,5.26889E-1,7.100094E-2,3.2342498E-3,-5.9645045E-1,3.991604E-2,-2.578713E-2,-3.3882905E-3,-5.5222005E-2,5.0391793E-2,-2.0672606E-2,6.822582E-2,1.2823926E-2,3.478111E-2,-3.177016E-2,-7.245784E-2,-2.2942673E-2],"categories":[],"categories_nodes":[],"categories_segments":[],"categories_sizes":[],"default_left":[0,0,0,0,0,0,0,0,0,0,0,0,0,0,0,0,0,0,0,0,0,0,0,0,0],"id":52,"left_children":[1,3,5,7,9,11,13,15,17,19,21,-1,23,-1,-1,-1,-1,-1,-1,-1,-1,-1,-1,-1,-1],"loss_changes":[5.7566184E-1,4.9513963E-1,7.102312E-1,9.778772E-1,3.0918515E-1,3.902728E-1,5.036975E-1,1.8530959E-1,6.281452E-1,1.3230824E-1,5.6120086E-1,0E0,1.4598012E-2,0E0,0E0,0E0,0E0,0E0,0E0,0E0,0E0,0E0,0E0,0E0,0E0],"parents":[2147483647,0,0,1,1,2,2,3,3,4,4,5,5,6,6,7,7,8,8,9,9,10,10,12,12],"right_children":[2,4,6,8,10,12,14,16,18,20,22,-1,24,-1,-1,-1,-1,-1,-1,-1,-1,-1,-1,-1,-1],"split_conditions":[9E-1,1E-1,2E0,1.59E2,1E0,1.17E2,2E0,2.36E2,1.4E2,2.41E2,6E-1,3.2342498E-3,1.32E2,3.991604E-2,-2.578713E-2,-3.3882905E-3,-5.5222005E-2,5.0391793E-2,-2.0672606E-2,6.822582E-2,1.2823926E-2,3.478111E-2,-3.177016E-2,-7.245784E-2,-2.2942673E-2],"split_indices":[9,9,2,7,11,3,9,4,3,4,9,0,3,0,0,0,0,0,0,0,0,0,0,0,0],"split_type":[0,0,0,0,0,0,0,0,0,0,0,0,0,0,0,0,0,0,0,0,0,0,0,0,0],"sum_hessian":[1.9240051E1,1.2298019E1,6.942032E0,6.560501E0,5.7375183E0,4.0405827E0,2.9014492E0,2.9388785E0,3.6216223E0,2.5487254E0,3.188793E0,1.1951467E0,2.8454359E0,1.7714173E0,1.1300321E0,1.0926526E0,1.8462259E0,2.339775E0,1.2818475E0,1.322049E0,1.2266763E0,1.9239051E0,1.2648878E0,1.387025E0,1.458411E0],"tree_param":{"num_deleted":"0","num_feature":"13","num_nodes":"25","size_leaf_vector":"1"}},{"base_weights":[2.081014E-3,-1.6582143E-1,1.6312069E-1,-3.398572E-1,9.717185E-2,5.3074326E-2,1.7689826E-2,-1.2892351E-2,-4.9814016E-1,3.097037E-2,-1.5275172E-2,-2.4365081E-1,1.9901772E-1,-2.8688783E-2,2.575695E-2,-6.297638E-2,-3.741375E-3,-5.6270737E-2,7.765138E-3,4.3252848E-2,-1.8130088E-2],"categories":[],"categories_nodes":[],"categories_segments":[],"categories_sizes":[],"default_left":[0,0,0,0,0,0,0,0,0,0,0,0,0,0,0,0,0,0,0,0,0],"id":53,"left_children":[1,3,5,7,9,-1,11,13,15,-1,-1,17,19,-1,-1,-1,-1,-1,-1,-1,-1],"loss_changes":[5.678959E-1,5.039313E-1,5.6342185E-1,3.255062E-1,3.0624038E-1,0E0,4.613138E-1,3.050025E-1,2.3690093E-1,0E0,0E0,4.555971E-1,5.840455E-1,0E0,0E0,0E0,0E0,0E0,0E0,0E0,0E0],"parents":[2147483647,0,0,1,1,2,2,3,3,4,4,6,6,7,7,8,8,11,11,12,12],"right_children":[2,4,6,8,10,-1,12,14,16,-1,-1,18,20,-1,-1,-1,-1,-1,-1,-1,-1],"split_conditions":[2E0,2E0,1E0,2.21E2,1E0,5.3074326E-2,1E0,2.01E2,2.88E2,3.097037E-2,-1.5275172E-2,1.28E2,2.34E2,-2.8688783E-2,2.575695E-2,-6.297638E-2,-3.741375E-3,-5.6270737E-2,7.765138E-3,4.3252848E-2,-1.8130088E-2],"split_indices":[10,2,1,4,11,0,6,4,4,0,0,3,4,0,0,0,0,0,0,0,0],"split_type":[0,0,0,0,0,0,0,0,0,0,0,0,0,0,0,0,0,0,0,0,0],"sum_hessian":[1.900251E1,9.288492E0,9.714018E0,5.413707E0,3.8747854E0,2.0025313E0,7.711487E0,2.1186554E0,3.2950513E0,1.9647733E0,1.9100121E0,3.018025E0,4.6934614E0,1.0222831E0,1.0963724E0,2.277504E0,1.0175474E0,1.1373202E0,1.8807049E0,2.8229358E0,1.8705258E0],"tree_param":{"num_deleted":"0","num_feature":"13","num_nodes":"21","size_leaf_vector":"1"}},{"base_weights":[6.8815495E-4,2.659091E-1,-9.122521E-2,-1.990886E-2,5.072863E-2,1.2274486E-3,-4.4887435E-2,-2.2704333E-2,1.7574083E-2,-2.887116E-1,1.8028297E-1,-4.9694594E-2,2.277144E-2,4.802824E-2,1.9661062E-3],"categories":[],"categories_nodes":[],"categories_segments":[],"categories_sizes":[],"default_left":[0,0,0,0,0,0,0,0,0,0,0,0,0,0,0],"id":54,"left_children":[1,3,5,7,-1,9,-1,-1,-1,11,13,-1,-1,-1,-1],"loss_changes":[5.0631005E-1,3.7882993E-1,5.107502E-1,1.7806602E-1,0E0,7.403317E-1,0E0,0E0,0E0,6.988171E-1,4.1516504E-1,0E0,0E0,0E0,0E0],"parents":[2147483647,0,0,1,1,2,2,3,3,5,5,9,9,10,10],"right_children":[2,4,6,8,-1,10,-1,-1,-1,12,14,-1,-1,-1,-1],"split_conditions":[1E0,2E0,2.78E2,1.47E2,5.072863E-2,5.1E1,-4.4887435E-2,-2.2704333E-2,1.7574083E-2,1.69E2,5.6E1,-4.9694594E-2,2.277144E-2,4.802824E-2,1.9661062E-3],"split_indices":[1,10,4,7,0,0,0,0,0,7,0,0,0,0,0],"split_type":[0,0,0,0,0,0,0,0,0,0,0,0,0,0,0],"sum_hessian":[1.8774601E1,4.344699E0,1.4429903E1,2.4093158E0,1.9353831E0,1.2257813E1,2.1720889E0,1.0923673E0,1.3169485E0,4.4460497E0,7.8117642E0,3.1953394E0,1.2507104E0,2.0300405E0,5.7817235E0],"tree_param":{"num_deleted":"0","num_feature":"13","num_nodes":"15","size_leaf_vector":"1"}},{"base_weights":[1.9113101E-3,1.3478659E-1,-1.7526573E-1,-2.141291E-2,4.319192E-1,-3.8914E-1,1.15135565E-1,-1.3357021E-1,3.9293498E-2,6.256936E-2,8.724692E-3,-5.398771E-2,-6.9964738E-3,-2.5114251E-2,3.5037747E-1,9.3783615E-3,-3.4787327E-2,5.028528E-2,1.391218E-3],"categories":[],"categories_nodes":[],"categories_segments":[],"categories_sizes":[],"default_left":[0,0,0,0,0,0,0,0,0,0,0,0,0,0,0,0,0,0,0],"id":55,"left_children":[1,3,5,7,9,11,13,15,-1,-1,-1,-1,-1,-1,17,-1,-1,-1,-1],"loss_changes":[4.8502284E-1,5.55274E-1,5.934691E-1,4.5511308E-1,2.1930271E-1,2.1796674E-1,4.773103E-1,4.0119115E-1,0E0,0E0,0E0,0E0,0E0,0E0,1.5557247E-1,0E0,0E0,0E0,0E0],"parents":[2147483647,0,0,1,1,2,2,3,3,4,4,5,5,6,6,7,7,14,14],"right_children":[2,4,6,8,10,12,14,16,-1,-1,-1,-1,-1,-1,18,-1,-1,-1,-1],"split_conditions":[1E0,1.61E2,1E0,6.5E1,3E0,2E0,1E0,2.41E2,3.9293498E-2,6.256936E-2,8.724692E-3,-5.398771E-2,-6.9964738E-3,-2.5114251E-2,1.61E2,9.3783615E-3,-3.4787327E-2,5.028528E-2,1.391218E-3],"split_indices":[11,7,6,0,12,2,2,4,0,0,0,0,0,0,7,0,0,0,0],"split_type":[0,0,0,0,0,0,0,0,0,0,0,0,0,0,0,0,0,0,0],"sum_hessian":[1.8598612E1,1.0764755E1,7.833856E0,7.6638722E0,3.1008828E0,4.3155437E0,3.5183125E0,6.5645833E0,1.0992894E0,1.4630364E0,1.6378465E0,2.4615502E0,1.8539935E0,1.3495045E0,2.168808E0,3.4581816E0,3.1064014E0,1.1521667E0,1.0166411E0],"tree_param":{"num_deleted":"0","num_feature":"13","num_nodes":"19","size_leaf_vector":"1"}},{"base_weights":[4.4336035E-3,1.2265377E-1,-1.9390374E-1,-5.6183614E-2,3.060248E-1,-4.018754E-1,1.2105262E-1,-5.1849414E-2,1.6811557E-1,5.0813484E-1,6.1388433E-2,-8.453688E-2,-6.963567E-2,3.7378486E-2,-2.5869489E-2,4.1072175E-2,-3.2102507E-2,6.508465E-2,1.279289E-2,3.24296E-2,-3.0472418E-2,1.63303E-2,-2.892895E-2],"categories":[],"categories_nodes":[],"categories_segments":[],"categories_sizes":[],"default_left":[0,0,0,0,0,0,0,0,0,0,0,0,0,0,0,0,0,0,0,0,0,0,0],"id":56,"left_children":[1,3,5,7,9,11,13,-1,15,17,19,21,-1,-1,-1,-1,-1,-1,-1,-1,-1,-1,-1],"loss_changes":[4.7825438E-1,4.3552682E-1,5.481646E-1,8.444577E-1,2.878927E-1,3.9198935E-1,4.6153405E-1,0E0,8.0499125E-1,1.01032734E-1,4.8932528E-1,2.2283956E-1,0E0,0E0,0E0,0E0,0E0,0E0,0E0,0E0,0E0,0E0,0E0],"parents":[2147483647,0,0,1,1,2,2,3,3,4,4,5,5,6,6,8,8,9,9,10,10,11,11],"right_children":[2,4,6,8,10,12,14,-1,16,18,20,22,-1,-1,-1,-1,-1,-1,-1,-1,-1,-1,-1],"split_conditions":[9E-1,1E-1,2E0,1.53E2,1E0,3E0,2E0,-5.1849414E-2,1.4E2,2.41E2,6E-1,2.29E2,-6.963567E-2,3.7378486E-2,-2.5869489E-2,4.1072175E-2,-3.2102507E-2,6.508465E-2,1.279289E-2,3.24296E-2,-3.0472418E-2,1.63303E-2,-2.892895E-2],"split_indices":[9,9,2,7,11,12,9,0,3,4,9,4,0,0,0,0,0,0,0,0,0,0,0],"split_type":[0,0,0,0,0,0,0,0,0,0,0,0,0,0,0,0,0,0,0,0,0,0,0],"sum_hessian":[1.8382528E1,1.1756555E1,6.6259747E0,6.302998E0,5.4535565E0,3.8245683E0,2.8014064E0,1.6305659E0,4.672432E0,2.3965266E0,3.05703E0,2.4603355E0,1.3642328E0,1.6914213E0,1.1099851E0,3.2304823E0,1.4419496E0,1.224922E0,1.1716048E0,1.8457817E0,1.2112484E0,1.2046372E0,1.2556982E0],"tree_param":{"num_deleted":"0","num_feature":"13","num_nodes":"23","size_leaf_vector":"1"}},{"base_weights":[2.3111827E-3,2.643397E-1,-8.848551E-2,-7.268595E-3,4.5184648E-1,8.496863E-2,-2.5007075E-1,5.707344E-2,1.3441252E-2,3.7119126E-1,-1.01282194E-1,-3.7904984E-1,3.258042E-2,8.273878E-3,4.6438962E-2,1.7586756E-2,-4.131409E-2,6.044547E-4,-5.5629283E-2],"categories":[],"categories_nodes":[],"categories_segments":[],"categories_sizes":[],"default_left":[0,0,0,0,0,0,0,0,0,0,0,0,0,0,0,0,0,0,0],"id":57,"left_children":[1,3,5,-1,7,9,11,-1,-1,13,15,17,-1,-1,-1,-1,-1,-1,-1],"loss_changes":[4.790705E-1,3.601729E-1,4.409199E-1,0E0,5.4115117E-2,4.623586E-1,7.18117E-1,0E0,0E0,5.1779896E-2,5.577613E-1,4.8134685E-1,0E0,0E0,0E0,0E0,0E0,0E0,0E0],"parents":[2147483647,0,0,1,1,2,2,4,4,5,5,6,6,9,9,10,10,11,11],"right_children":[2,4,6,-1,8,10,12,-1,-1,14,16,18,-1,-1,-1,-1,-1,-1,-1],"split_conditions":[1E0,1E-1,6E-1,-7.268595E-3,1E0,2.23E2,1.42E2,5.707344E-2,1.3441252E-2,1.22E2,3E0,1.2E2,3.258042E-2,8.273878E-3,4.6438962E-2,1.7586756E-2,-4.131409E-2,6.044547E-4,-5.5629283E-2],"split_indices":[1,9,9,0,9,4,3,0,0,3,12,3,0,0,0,0,0,0,0],"split_type":[0,0,0,0,0,0,0,0,0,0,0,0,0,0,0,0,0,0,0],"sum_hessian":[1.8153215E1,4.179715E0,1.39735E1,1.7130413E0,2.4666739E0,6.9679213E0,7.0055785E0,1.214025E0,1.2526487E0,2.3553505E0,4.612571E0,6.0028915E0,1.002687E0,1.0361618E0,1.3191888E0,2.6730711E0,1.9394995E0,2.1964908E0,3.8064008E0],"tree_param":{"num_deleted":"0","num_feature":"13","num_nodes":"19","size_leaf_vector":"1"}},{"base_weights":[5.887375E-3,2.5263855E-1,-7.989217E-2,-2.0590218E-2,4.8409265E-2,-3.5076416E-1,2.6190404E-2,-2.1407012E-2,1.6285485E-2,1.227619E-2,-7.2024085E-2,4.84406E-1,-1.2641919E-1,1.1839077E-2,6.063793E-2,-2.8008452E-2,2.0589506E-2],"categories":[],"categories_nodes":[],"categories_segments":[],"categories_sizes":[],"default_left":[0,0,0,0,0,0,0,0,0,0,0,0,0,0,0,0,0],"id":58,"left_children":[1,3,5,7,-1,9,11,-1,-1,-1,-1,13,15,-1,-1,-1,-1],"loss_changes":[4.2167914E-1,3.3460435E-1,4.3547547E-1,1.524665E-1,0E0,8.3100927E-1,8.717647E-1,0E0,0E0,0E0,0E0,6.67339E-2,5.4217505E-1,0E0,0E0,0E0,0E0],"parents":[2147483647,0,0,1,1,2,2,3,3,5,5,6,6,11,11,12,12],"right_children":[2,4,6,8,-1,10,12,-1,-1,-1,-1,14,16,-1,-1,-1,-1],"split_conditions":[1E0,2E0,1.43E2,1.47E2,4.8409265E-2,2.35E2,1.49E2,-2.1407012E-2,1.6285485E-2,1.227619E-2,-7.2024085E-2,1E0,1.69E2,1.1839077E-2,6.063793E-2,-2.8008452E-2,2.0589506E-2],"split_indices":[1,10,7,7,0,4,7,0,0,0,0,2,7,0,0,0,0],"split_type":[0,0,0,0,0,0,0,0,0,0,0,0,0,0,0,0,0],"sum_hessian":[1.7968697E1,4.1334157E0,1.3835281E1,2.3134525E0,1.8199632E0,3.2444248E0,1.0590857E1,1.0446812E0,1.2687712E0,1.7146494E0,1.5297754E0,2.1028435E0,8.488013E0,1.018169E0,1.0846746E0,5.911601E0,2.576412E0],"tree_param":{"num_deleted":"0","num_feature":"13","num_nodes":"17","size_leaf_vector":"1"}},{"base_weights":[7.910498E-3,1.351207E-1,-1.6239406E-1,-1.2446296E-2,4.148771E-1,-3.725781E-1,1.2288547E-1,-1.1946135E-1,3.7945576E-2,6.013147E-2,8.7210415E-3,-5.203973E-2,-6.3700676E-3,-2.2933822E-2,3.4232664E-1,8.4293205E-3,-3.1195704E-2,4.511911E-2,6.3453666E-3],"categories":[],"categories_nodes":[],"categories_segments":[],"categories_sizes":[],"default_left":[0,0,0,0,0,0,0,0,0,0,0,0,0,0,0,0,0,0,0],"id":59,"left_children":[1,3,5,7,9,11,13,15,-1,-1,-1,-1,-1,-1,17,-1,-1,-1,-1],"loss_changes":[4.290836E-1,4.7179997E-1,5.548316E-1,3.9640048E-1,1.8779409E-1,2.0135868E-1,4.1499436E-1,3.1402498E-1,0E0,0E0,0E0,0E0,0E0,0E0,6.498256E-2,0E0,0E0,0E0,0E0],"parents":[2147483647,0,0,1,1,2,2,3,3,4,4,5,5,6,6,7,7,14,14],"right_children":[2,4,6,8,10,12,14,16,-1,-1,-1,-1,-1,-1,18,-1,-1,-1,-1],"split_conditions":[1E0,1.61E2,1E0,6.5E1,3E0,2E0,1E0,2.41E2,3.7945576E-2,6.013147E-2,8.7210415E-3,-5.203973E-2,-6.3700676E-3,-2.2933822E-2,1.32E2,8.4293205E-3,-3.1195704E-2,4.511911E-2,6.3453666E-3],"split_indices":[11,7,6,0,12,2,2,4,0,0,0,0,0,0,3,0,0,0,0],"split_type":[0,0,0,0,0,0,0,0,0,0,0,0,0,0,0,0,0,0,0],"sum_hessian":[1.779301E1,1.0303403E1,7.489608E0,7.370888E0,2.9325154E0,4.1361933E0,3.3534145E0,6.335936E0,1.0349522E0,1.3367705E0,1.5957448E0,2.334278E0,